%YAML:1.0
---
opencv_ml_svm:
   format: 3
   svmType: C_SVC
   kernel:
      type: LINEAR
   C: 2.6699999999999999e+00
   term_criteria: { epsilon:1.1920928955078125e-07, iterations:1000 }
   var_count: 64
   class_count: 10
   class_labels: !!opencv-matrix
      rows: 10
      cols: 1
      dt: i
      data: [ 0, 1, 2, 3, 4, 5, 6, 7, 8, 9 ]
   sv_total: 45
   support_vectors:
      - [ -3.85174390e-05, 1.24358325e-04, 1.22470738e-04,
          1.00730736e-04, -8.67165625e-07, 0., 0., -7.90266938e-07,
          5.53436439e-05, 9.54023635e-05, -2.19452772e-06,
          -2.19880822e-05, -2.18238274e-05, -8.35395840e-05,
          -4.95355671e-05, 2.40469162e-05, -9.01392268e-05,
          -6.53597453e-05, -1.05932217e-04, -1.04028826e-04,
          5.32137419e-05, 4.28131716e-05, 6.69375368e-05, 2.35775413e-04,
          1.84901190e-04, 5.09077181e-05, -5.55131301e-05,
          -3.00817846e-05, 9.08046059e-05, 5.89020419e-05,
          6.24924141e-05, 4.42532219e-05, -1.48154559e-05,
          -4.13965927e-06, -2.57826650e-06, -1.07515050e-04,
          2.97797287e-05, 1.07418848e-04, 1.17564923e-04, 3.46971028e-05,
          -9.98856631e-05, 2.71983790e-05, 1.47355868e-05,
          6.75004515e-07, 4.83999465e-05, 1.26054656e-04, 1.39956928e-05,
          2.28477202e-05, 2.86173163e-04, 1.12941008e-04, 7.06264836e-05,
          6.84309853e-05, -2.14749598e-05, -4.43888894e-05,
          -2.13865242e-05, -3.36424432e-06, -7.69922772e-05,
          3.29375907e-05, 7.93460058e-05, 1.51135946e-05, 2.26866232e-05,
          -7.70778661e-06, 5.24970019e-05, 6.79111417e-06 ]
      - [ 1.09595247e-04, 9.15655401e-05, -8.67074164e-07,
          -6.76283671e-05, -6.29938513e-05, -5.02083240e-05,
          9.71517966e-06, 7.99158570e-08, 6.92288231e-05, 9.04572298e-05,
          -2.22762592e-05, 5.66944072e-06, -8.51393197e-05,
          -1.25294770e-04, -7.39847528e-05, 1.95761768e-05,
          5.39128996e-05, -1.77244743e-04, -1.23416263e-04,
          -8.82816021e-05, -9.77881064e-06, -1.21722214e-05,
          7.48365710e-05, 1.84371413e-04, 6.95281342e-05,
          -6.84127663e-05, -4.30077671e-05, -7.47864979e-05,
          1.75942296e-05, -9.38032608e-05, -3.43096472e-05,
          1.33293783e-04, -9.98918986e-05, -5.81580316e-05,
          -2.30908026e-05, 7.15370043e-05, 2.30432997e-05,
          9.86472005e-05, -4.77209433e-05, -5.87961449e-06,
          -1.43215133e-04, -1.16129617e-04, -7.08774605e-05,
          1.38456031e-04, 5.30062607e-05, 6.80640151e-05, 2.11256793e-06,
          -1.12605281e-04, 1.29344262e-04, 2.15058553e-05,
          1.72158601e-04, -5.71728378e-06, -5.98344159e-05,
          -7.14363923e-05, -1.56275812e-04, -9.99812346e-06,
          3.59409096e-05, 4.72478896e-05, 4.97063811e-05,
          -7.35310550e-06, 1.65352849e-05, -3.72678332e-05,
          -8.15171516e-05, 1.45442187e-04 ]
      - [ 1.03989027e-04, 5.16037908e-05, -3.86963911e-05,
          -1.78381342e-05, 1.90859646e-05, -4.18947775e-06,
          3.50478695e-05, 1.07613496e-05, 9.75125076e-05, 1.01167745e-04,
          4.37277959e-05, -3.37353704e-05, -1.27379953e-05,
          -1.45517173e-04, -7.65685545e-05, -6.67016284e-05,
          1.04255174e-04, -1.32465066e-04, -7.79124312e-05,
          -1.41136246e-04, -1.57271843e-05, 3.20869076e-05,
          2.91320393e-05, 9.83672653e-05, 1.50251086e-04, 3.19204592e-05,
          6.12035547e-06, -9.93339345e-05, -1.00640018e-05,
          -5.80122032e-05, 6.50417405e-06, 1.04194361e-04,
          2.42751885e-05, -1.17720672e-04, -4.23803103e-05,
          8.28590055e-05, 2.12062332e-05, 9.00565865e-05,
          -8.19808247e-06, -1.40314851e-05, -1.45168946e-04,
          -8.06956086e-05, -2.13358144e-05, 6.34815879e-05,
          4.37972303e-05, 1.17239055e-04, 7.79997936e-05, 1.09806664e-04,
          6.38507045e-05, 2.34193540e-05, 6.36142431e-05,
          -1.08760041e-05, 4.44613434e-05, -4.83983349e-05,
          -1.09351618e-04, 1.11458912e-05, -4.32486049e-05,
          -8.07722463e-05, 2.02274150e-05, 2.87178846e-05,
          8.64276171e-06, -9.01207532e-05, -7.48314487e-05,
          8.33562590e-05 ]
      - [ 6.52540984e-05, 3.90283130e-05, -2.40391328e-05,
          7.11945177e-05, -2.16143144e-05, -7.56186710e-05,
          1.17063400e-05, -3.23767854e-05, 5.17637782e-05,
          6.21659183e-06, 3.64662737e-05, -7.39206962e-06,
          8.90035426e-06, 3.69043391e-06, 1.58870671e-06, 4.80640047e-05,
          -1.73138494e-06, -9.66268635e-05, -2.83903646e-05,
          -6.24426248e-05, 6.23240066e-06, 9.18906881e-05,
          -4.33301147e-06, 1.03579529e-04, 1.45791710e-04,
          7.37747760e-05, -2.71901790e-05, -1.02753664e-04,
          -1.58628045e-05, -1.15031842e-04, 3.16248879e-05,
          7.81758063e-05, -8.56057595e-05, -1.16313502e-04,
          -7.41326949e-05, -6.79953446e-05, 1.30591470e-05,
          5.35506333e-05, 9.14464326e-05, 4.22879202e-06,
          -1.05556152e-04, -3.08225776e-06, 1.39734286e-04,
          6.73430040e-05, 4.04334169e-05, 6.57706405e-05, 1.37998650e-04,
          9.72695580e-06, 1.34937276e-04, 1.91527957e-04, 1.19605007e-04,
          1.40173870e-04, 1.08687309e-05, -9.89400287e-05,
          -2.53769158e-05, 4.28422136e-05, -2.57167976e-05,
          -6.60121223e-05, -2.09193986e-05, 2.02083447e-05,
          3.11490403e-05, -1.30734537e-04, -8.71716838e-05,
          5.70648808e-05 ]
      - [ -6.96813950e-05, -1.41689816e-05, 4.33743699e-05,
          1.04693689e-04, 1.03554466e-05, -7.65587356e-06,
          -8.63049991e-06, -3.65932283e-05, 5.09296769e-05,
          1.02947779e-05, 7.82530769e-05, -3.39067287e-06,
          3.64486004e-05, -5.97851758e-05, -1.17667012e-04,
          -1.07190252e-04, 7.66320227e-05, -1.64197365e-04,
          -7.68569880e-05, -1.38365198e-04, -2.15744803e-05,
          5.13473606e-05, 5.46224728e-05, 9.78351163e-05, 8.72684614e-05,
          2.51645342e-05, -8.50599827e-05, -1.12339534e-04,
          -4.36586051e-05, -2.57332954e-06, 3.42737112e-05,
          1.15571725e-04, 4.49674153e-05, 1.05865065e-05, 1.66552672e-05,
          -8.54758691e-05, -8.24391318e-05, 3.41870327e-05,
          5.11708604e-05, 1.04234154e-04, 1.10796436e-05,
          -8.93556935e-05, -1.43508281e-04, -9.58148958e-05,
          -4.86567042e-05, 1.08162298e-04, 1.02095575e-04,
          8.19951165e-05, -3.34272336e-05, 7.48918901e-05,
          6.51903538e-05, 5.12286315e-05, 1.75478526e-05,
          -7.08430161e-05, -1.53243091e-04, -1.15087940e-04,
          -3.98833026e-06, -6.42571977e-05, 4.92305517e-05,
          9.95516530e-05, 6.39750797e-05, -9.63936109e-05,
          -8.32948572e-05, 2.87464482e-05 ]
      - [ -2.73709273e-04, -1.02432918e-04, 8.02743671e-05,
          1.84125995e-04, 1.34361500e-04, -1.63843506e-05,
          -2.12163854e-04, -2.10606613e-05, -2.17086472e-05,
          1.48330830e-04, -3.15992002e-05, -8.90378797e-05,
          8.04491356e-05, 1.70429939e-05, -5.15517095e-05,
          5.58535976e-05, 5.17230037e-05, -1.04116007e-04,
          -3.23178574e-05, 1.17842268e-04, 4.45553887e-05,
          5.16389991e-05, 1.10587927e-04, 1.34845162e-04, 6.65948173e-05,
          7.06385254e-05, -7.62773561e-06, -5.57273816e-05,
          1.70541462e-05, 1.17038668e-04, -9.31229952e-05,
          6.62861421e-05, 9.21710671e-06, -1.41575772e-04,
          -2.27460594e-04, -2.01596617e-04, -1.58329873e-04,
          3.68430628e-05, 1.58511961e-04, 2.25284195e-04, 1.75022051e-05,
          -8.75610349e-05, -1.13635451e-05, -6.31369476e-05,
          4.42273958e-05, 8.93645265e-05, 1.34601869e-04, 2.98906234e-04,
          2.34035746e-04, 1.34340458e-04, 9.12863397e-05, 5.60483022e-05,
          1.29333086e-04, -5.47529380e-05, -7.62683048e-05,
          2.26160890e-04, 5.06120959e-05, -1.53358160e-05,
          1.50614687e-05, -1.24020167e-04, -3.83618753e-05,
          -7.79247712e-05, 8.67652707e-05, 2.93843914e-05 ]
      - [ 1.55860165e-04, 3.73091170e-05, -3.07720402e-05,
          -6.51140872e-05, -8.74723919e-05, -2.16916324e-05,
          -1.86978341e-05, -6.99885504e-06, 5.17299231e-05,
          -7.76794968e-06, -2.06984605e-05, -4.07208499e-05,
          -5.95195670e-05, -2.57238862e-05, -6.43769590e-06,
          5.71892670e-05, 6.26769952e-06, -1.69043196e-04,
          -7.31124746e-05, -6.77296921e-05, 2.88123665e-05,
          5.22774644e-05, 1.33100155e-04, 1.69787279e-04, 1.19546326e-04,
          -5.26155236e-05, -6.84665138e-05, -1.06530279e-05,
          6.38836937e-05, -2.25778167e-05, 6.41394654e-05,
          -2.05105789e-05, -4.23448764e-05, -4.48819846e-05,
          -4.57114838e-05, -1.09524772e-04, -2.69170414e-05,
          1.05712570e-04, 1.01570731e-04, 5.45241637e-05,
          -7.23982521e-05, -4.96614957e-05, 1.75358873e-05,
          5.21133006e-05, -9.13320582e-06, -2.16084027e-05,
          6.25284738e-05, -2.56664953e-06, 1.52176381e-06,
          1.13669703e-04, 1.00480043e-04, 7.73956126e-05,
          -1.62638407e-05, -3.68760084e-05, -7.98571491e-05,
          -1.81443684e-05, -1.16198666e-04, -9.28594527e-05,
          -1.05029440e-05, 1.43786718e-04, 3.61409839e-05,
          9.82750862e-06, -2.18724949e-06, 6.26850015e-05 ]
      - [ 8.73336030e-05, 1.08186658e-04, 6.93728362e-05, 1.34193870e-05,
          -2.54745446e-05, -8.00469934e-05, -1.07153588e-04,
          -7.37274695e-06, -6.23577262e-06, 1.20983837e-04,
          -1.44848556e-04, 3.52535935e-05, 6.03665576e-05,
          -1.31759161e-05, -1.30571061e-04, -1.68039260e-04,
          4.68344733e-05, -2.07917052e-04, -1.37754294e-04,
          -1.47940518e-05, 4.28962667e-05, 8.26411924e-05,
          2.01491293e-05, 1.17064592e-04, 5.58642569e-05,
          -5.41757545e-05, -1.20496676e-04, -7.62744530e-05,
          1.54466165e-04, -3.13604833e-05, -6.26557885e-05,
          -1.88661088e-05, 3.96567048e-05, -1.35555340e-04,
          -1.73589578e-04, -2.10929920e-05, -4.66247220e-05,
          3.04394925e-05, 4.97259280e-05, 1.09425317e-04,
          -4.00740028e-05, -7.97935427e-05, 2.18011774e-05,
          6.06091198e-05, -1.48480312e-05, 1.61791613e-05,
          8.07800097e-05, 3.54019903e-05, 1.65135658e-04, 7.83572541e-05,
          1.11808935e-04, 2.98802115e-05, -3.45814478e-05,
          -2.58546042e-05, -1.76153437e-04, -7.87380923e-05,
          8.58547573e-05, -7.22102050e-05, -8.01804106e-07,
          -1.60613927e-05, -3.54938966e-05, -1.24883387e-04,
          -1.12771682e-04, 9.80683108e-05 ]
      - [ 9.43762934e-05, 7.68018363e-05, -9.04234112e-05,
          1.28768457e-04, 2.51820802e-05, -1.05843814e-04,
          -7.94128064e-05, -1.69784733e-04, 1.04549763e-04,
          -9.43160267e-05, 1.13415466e-04, 2.32186649e-05,
          -5.29940189e-06, -1.57721970e-05, -7.41870099e-05,
          -7.15986826e-05, 9.73799542e-05, -1.18872915e-04,
          -1.10263711e-04, -1.76850474e-04, 5.36143452e-05,
          7.31400651e-05, -1.39274962e-05, 1.45255195e-04,
          2.58209126e-04, 5.81035165e-05, 3.25791516e-05,
          -2.24151110e-04, -8.37239277e-05, -3.85436142e-05,
          9.23723492e-05, 2.27801866e-04, -2.41230373e-05,
          -1.61525051e-04, -1.49927422e-04, -1.04571518e-04,
          -6.72465903e-05, 8.06518365e-05, 9.08946022e-05,
          -3.44945238e-06, -1.19584016e-04, 5.03335323e-05,
          6.87542852e-05, 1.18721518e-05, -6.42595624e-05,
          9.70858673e-05, -9.67886808e-06, 7.40675387e-05,
          1.19712786e-04, 5.12713414e-05, 9.97459065e-05, 7.24668644e-05,
          4.29589309e-05, -1.00528277e-05, 2.77742606e-06,
          -1.12192858e-04, -1.93022424e-04, -1.15541567e-04,
          3.30792427e-05, 2.02704250e-04, -1.55869729e-05,
          -1.98806229e-04, -2.56315048e-04, 3.79859230e-05 ]
      - [ 6.03728331e-05, -1.25395436e-05, -2.85281058e-05,
          -7.22553013e-05, -9.83568243e-05, -1.64795551e-06,
          -3.28571764e-06, 2.72358502e-05, -1.05092142e-04,
          -7.02331236e-05, -1.43620709e-04, -6.64331892e-05,
          -5.38291533e-05, -7.61531337e-05, -5.56256164e-05,
          1.26205166e-04, 9.27106448e-05, -1.80738643e-04,
          -7.53002023e-05, 7.10257882e-05, -9.38947560e-05,
          -5.95065649e-05, -5.27600132e-05, 6.88768387e-06,
          -3.36466146e-05, -2.00088980e-04, 4.81135685e-05,
          1.11068985e-05, -1.41842131e-04, -1.12206661e-04,
          -7.56998224e-06, 5.38778768e-05, -1.60184325e-04,
          -5.92715951e-05, 4.80775343e-05, 1.47589196e-06,
          -4.81788520e-05, -2.04861353e-04, -1.39679774e-04,
          1.31567824e-04, 3.18140257e-04, -1.06629472e-04,
          2.16587214e-05, -2.76668816e-05, -9.31910836e-05,
          -2.85967908e-05, -2.29768611e-05, -5.97788276e-05,
          -1.76095159e-06, -6.75146803e-05, -4.17188460e-07,
          -5.38713612e-05, -3.80552920e-05, -1.28595144e-04,
          1.11498564e-04, 5.19658897e-05, 1.59781252e-04,
          -1.63679506e-04, -1.61284057e-04, 1.82189280e-04,
          -2.46804731e-04, -3.09829229e-05, 5.93373898e-06,
          9.93954818e-05 ]
      - [ 1.21104516e-04, 2.96912021e-05, -3.70931884e-05,
          -9.98530159e-05, -5.01128525e-05, -3.84943769e-06, 0.,
          1.75258526e-06, -1.04862602e-06, -8.83192115e-06,
          2.31264185e-05, -3.24970642e-05, -7.04168124e-05,
          -6.44235115e-05, -5.81736458e-05, 8.35787796e-05,
          1.45831946e-04, -2.76946648e-05, 3.77202705e-05,
          -3.88355656e-05, -7.21080651e-05, -3.68026631e-05,
          -6.80633821e-06, 1.01998057e-06, 2.35555486e-08,
          -7.57165844e-06, 3.35151017e-05, 5.93505429e-05,
          -9.61547485e-05, -9.43892446e-05, -2.98060240e-05,
          7.86149467e-05, -7.40021449e-07, -3.23076201e-05,
          3.30984985e-05, -1.08113773e-05, -1.98841062e-05,
          -9.36448341e-05, -6.45922191e-05, 1.15421150e-04,
          1.11336558e-04, -6.55495824e-05, -7.63694879e-06,
          1.04029477e-05, -8.93541619e-06, -1.78578575e-05,
          -5.23620292e-05, 1.83183001e-05, -5.35256368e-05,
          -7.17172443e-05, -5.81614877e-05, 1.37174047e-05,
          4.74485460e-05, 4.73072105e-05, -1.45571948e-05,
          3.31064512e-05, 5.43930655e-05, -1.63040590e-04,
          -3.74399788e-05, 4.10068023e-05, 2.33943210e-05,
          9.65835443e-06, -5.02564180e-05, -1.51850063e-05 ]
      - [ -3.95184143e-05, -4.14046553e-05, 1.11056761e-05,
          -8.80069001e-06, -1.21409932e-04, -1.59065850e-04,
          -1.08008353e-04, -8.26429314e-05, -7.77554960e-05,
          -4.58592694e-05, 1.04168939e-05, 3.99995697e-05,
          8.14069936e-05, 1.09367924e-04, 7.42812335e-05, 9.75794246e-05,
          1.09939610e-04, 6.09296912e-05, 1.28900152e-04, 1.01209269e-04,
          -1.24038939e-04, -6.47751076e-05, -1.03081045e-04,
          -2.81124612e-05, -1.01696503e-06, -3.52151255e-05,
          -1.88366466e-05, -1.20636014e-05, -2.81272398e-04,
          -3.20908352e-04, -3.90898858e-05, 1.36335817e-04,
          -1.28812622e-04, -2.81374378e-04, -2.34978397e-05,
          -5.42594025e-05, 4.75301531e-05, -4.85121418e-05,
          -6.30585055e-05, 1.41318291e-04, 1.49519343e-04,
          -9.12510513e-05, 8.92514345e-06, -1.30314484e-05,
          -2.19376057e-06, 5.46079245e-05, 1.46128623e-05,
          -7.89339174e-05, -1.15089540e-04, -5.39713146e-05,
          -8.33293088e-05, 6.75304254e-05, -4.40031581e-05,
          -2.00008421e-04, 1.18198433e-04, 1.98157592e-04,
          5.52252095e-05, -1.71669730e-04, -1.12761045e-04,
          2.66756178e-05, 5.80807455e-06, -7.23958146e-05,
          -2.90944372e-05, -6.35313627e-05 ]
      - [ -9.08396942e-06, 3.12609700e-05, -1.60670716e-05,
          -1.31668066e-05, -2.00389586e-05, -1.28109987e-05,
          -9.45734973e-06, 7.78110461e-06, -7.23760750e-05,
          -1.49317066e-05, 2.23287607e-05, 3.08600138e-05,
          2.42937695e-05, 2.43971263e-05, -9.00010418e-05,
          -3.88406734e-05, 1.31129360e-04, -1.68386741e-05,
          -1.00845624e-04, 6.45111722e-05, -2.15847158e-05,
          -3.02569479e-05, -3.63923064e-05, -4.48288210e-06,
          2.48917531e-05, -1.06089974e-05, 2.67584328e-05,
          -8.73270765e-05, -7.23992998e-05, -8.94514960e-05,
          3.00470274e-05, 9.42002371e-05, 4.94640226e-05,
          -7.13958616e-06, -2.27961136e-05, -1.75616096e-05,
          -2.81029734e-05, -9.54515781e-05, -7.51968328e-05,
          1.15108829e-04, 1.35918584e-04, -3.60643862e-05,
          -7.01002209e-05, -1.13377362e-04, -2.24056348e-05,
          1.51590593e-05, -1.62116248e-05, 2.97179922e-05,
          -8.23104565e-05, -9.96573362e-05, 8.79015170e-06,
          -2.26343709e-05, 1.23558320e-05, -2.07206267e-05,
          1.53115870e-05, 2.41114340e-05, 5.97092767e-05,
          -1.04528277e-04, -5.07852201e-05, 3.36209123e-05,
          -1.78357022e-05, 1.06823336e-05, 1.38413616e-05,
          -5.02865187e-05 ]
      - [ -4.95258791e-05, -6.04894594e-05, 1.17689924e-04,
          7.68736718e-05, -1.19230060e-06, -1.18173666e-05,
          -2.85215774e-05, 8.87819260e-05, -1.29008758e-05,
          -4.56817543e-06, 1.37602483e-05, 3.87177060e-05,
          3.26437439e-05, 3.24129760e-05, 4.07986554e-05, 1.91061379e-04,
          9.68624372e-05, 6.28128619e-05, 5.05102616e-05, 9.10025119e-05,
          -2.55024443e-05, -5.07052828e-05, -3.09626521e-05,
          -1.18733196e-05, -1.16469664e-05, -4.60136507e-05,
          -2.27467672e-06, 9.77792151e-05, -5.21852744e-05,
          -2.29578145e-04, -7.27876341e-06, 1.53302841e-04,
          -5.89043302e-05, -1.03790080e-04, -2.60179186e-05,
          -1.09373548e-04, 1.99730675e-05, -1.02614227e-04,
          -8.45240938e-05, 2.01587405e-04, 1.20819539e-04,
          -2.39208108e-04, 1.16873991e-04, -7.81171329e-05,
          1.41885039e-05, 1.55110029e-05, 7.44648287e-06, 1.92834013e-05,
          -9.13316617e-05, -3.53025025e-05, -3.35828954e-05,
          -2.30833448e-05, 1.59407222e-07, -1.02102626e-04,
          1.51451037e-04, 1.38580290e-04, 1.54897905e-04,
          -1.84353456e-04, -2.14826214e-04, -8.03142102e-05,
          -4.70945342e-05, 1.15991388e-04, -8.01444639e-06,
          -8.71539523e-05 ]
      - [ 3.44163185e-04, -1.44394668e-04, -3.96932410e-05,
          -2.99857027e-04, -1.31410401e-04, 1.75210025e-05, 0.,
          4.53347002e-06, -2.52692607e-05, -4.35594557e-05,
          -1.79971743e-04, -2.55672727e-04, -9.22639447e-05,
          -1.28887245e-04, -1.02318172e-05, 2.80226639e-04,
          -6.96383868e-05, -7.71305422e-05, 2.01638264e-04,
          -4.87803954e-05, -4.93205371e-05, -1.06841824e-07, 0.,
          1.67781911e-06, -4.53336816e-06, -1.10272267e-05,
          -2.09855243e-05, 1.34450544e-04, -6.39355567e-05,
          -1.83973680e-05, -4.99126145e-05, -1.29026710e-04,
          -1.82850534e-04, 5.82347748e-05, 4.92252923e-07,
          -5.25232899e-05, 4.71790327e-06, -1.37749405e-04,
          4.55284389e-05, 2.89586867e-04, 9.78914977e-05,
          -7.42447082e-05, 5.56802333e-05, 2.00394516e-05,
          -5.66327690e-05, -1.13146438e-04, -6.16290781e-05,
          -5.82765024e-05, 7.64853539e-05, -5.07811164e-05,
          -5.81324421e-05, 4.51364467e-05, 2.91643173e-05,
          7.24378915e-05, -7.82853167e-05, 8.70441218e-05,
          -3.47233799e-05, -2.01481438e-04, -1.20884019e-04,
          1.53941015e-04, 1.33092515e-04, -1.39345730e-05,
          -3.95070219e-06, 3.42054500e-06 ]
      - [ 1.76466958e-04, 5.45196453e-05, -9.31984323e-05,
          -4.74625776e-05, -6.04846427e-05, -5.09172423e-05,
          -9.74982104e-05, 4.00516110e-05, -5.81665881e-05,
          -9.60524922e-05, -3.93081027e-05, -1.93621509e-05,
          1.20246528e-04, 1.61368123e-04, -1.99716451e-04,
          7.73589709e-05, 4.30454529e-05, -1.13179485e-05,
          1.44390055e-04, 2.40072084e-04, -4.68550606e-05,
          -7.76623565e-05, -1.45230850e-04, 1.34897718e-05,
          9.31520190e-05, -1.57372298e-04, 5.01736213e-06,
          8.89707371e-05, 2.54509923e-05, -2.19392619e-04,
          -7.41641197e-05, 1.03435807e-04, -2.81266693e-05,
          -1.91964646e-04, 5.06420044e-08, -2.33156141e-04,
          -2.46897049e-04, -3.25427653e-04, 3.71416245e-05,
          1.72355241e-04, 1.64680911e-04, -6.04885754e-05,
          3.39777871e-05, -6.64709805e-05, -8.20661080e-05,
          -8.10485944e-05, -6.82870377e-05, 9.52020571e-07,
          -1.12665075e-04, -1.06277002e-04, -4.09648928e-05,
          2.03477375e-05, 5.92662655e-05, 9.44205312e-05,
          -4.69286570e-05, -2.50687717e-05, 1.80160801e-04,
          -2.29066573e-04, -1.85815748e-04, -1.21904603e-04,
          -1.75881054e-04, 1.50151405e-04, -2.29069410e-04,
          4.53791945e-05 ]
      - [ 2.51431302e-05, 5.31952501e-05, -1.91851228e-04,
          -4.99440539e-05, -7.24080528e-05, -6.27754416e-05,
          -4.82297582e-05, -9.02848114e-05, -1.88197708e-04,
          -9.65359941e-05, 2.13256517e-05, -2.07431058e-05,
          1.50363005e-04, -8.73950994e-05, -1.57282208e-04,
          2.57780339e-04, 1.93565385e-04, -1.43060199e-04,
          1.40856559e-04, 3.25815672e-05, -5.78370855e-05,
          -9.96717717e-05, -5.62411406e-05, -2.60077595e-05,
          -1.01339836e-04, -3.61652601e-05, -5.33146922e-05,
          6.43196618e-05, -1.90483435e-04, -1.03178085e-04,
          -9.32265975e-05, 2.44713941e-04, 1.25341161e-04,
          9.99511540e-05, -5.73695179e-05, -2.54640065e-04,
          -1.83979006e-04, -1.51892804e-04, 1.58515060e-04,
          2.28780002e-04, 1.79142604e-04, -1.12376774e-05,
          1.96593032e-06, -3.70798043e-05, -1.14359398e-04,
          -1.51748507e-04, -2.53807346e-04, 7.01379468e-05,
          -1.57655930e-04, -2.07507459e-04, -1.90527990e-05,
          1.57402574e-05, 3.51420795e-06, 8.43336820e-05, 2.06459372e-05,
          1.87941507e-04, -1.52531866e-04, -2.31324244e-04,
          1.59145216e-04, 1.73350927e-04, 2.63626076e-04,
          -4.48429491e-05, -9.74983122e-05, -1.33929774e-04 ]
      - [ 3.09159310e-04, -7.25866194e-05, -2.89948744e-04,
          -4.25394333e-04, -1.17399148e-04, 5.55143750e-04,
          5.35882369e-04, 8.36496125e-04, 2.18327899e-04, 5.08269295e-04,
          3.90349509e-04, 1.83600350e-04, 4.40500808e-05,
          -3.20538093e-04, 3.24837369e-04, 3.00088985e-04,
          4.52622684e-04, 1.42013159e-04, 2.23363284e-04, 1.10041619e-04,
          -2.32631239e-04, -1.08951077e-04, -5.88149414e-05,
          6.85491032e-05, 8.82655906e-04, 4.06094157e-04, 3.60311009e-04,
          4.69034203e-05, -2.18436136e-04, 2.32082879e-04,
          1.91957170e-05, 3.90232279e-04, 6.51518232e-04, 4.28583153e-04,
          -5.52448502e-04, 5.53053047e-04, 2.40374065e-04,
          1.92323729e-04, 4.51135071e-04, 3.40566272e-04, 2.76222381e-05,
          -2.90867611e-04, -1.72684013e-04, 1.96499313e-04,
          -1.57163522e-04, 6.80218334e-04, 6.91559981e-04,
          1.13416032e-03, -7.67095713e-04, -3.20956809e-04,
          -1.94503227e-04, 1.10976202e-04, 2.55185558e-04,
          -2.75141909e-04, -2.09558202e-04, -6.71161863e-04,
          -2.22887393e-04, -5.09608130e-04, -4.11403424e-04,
          1.13439455e-04, 2.05370685e-04, -1.02285136e-04,
          -5.29718585e-04, 2.09186674e-05 ]
      - [ -1.27160369e-04, -6.71242378e-05, -2.94581673e-06,
          2.09932055e-04, -1.27897420e-05, -4.63157667e-05,
          -3.38587870e-06, 4.04577094e-07, -1.01054895e-04,
          -1.67496855e-05, 1.81493699e-04, 1.06271291e-04,
          1.31165070e-04, 3.10065923e-04, 2.87416973e-04, 5.85732269e-05,
          1.12794463e-04, 9.92105852e-05, 1.79310053e-04, 2.41117872e-04,
          -7.98959372e-05, -1.05578161e-04, -8.13287406e-05,
          -1.00314501e-04, 7.13882982e-05, 2.28294211e-05,
          -1.94745429e-04, -8.64164831e-05, 4.55120717e-05,
          -1.01826081e-04, 6.75028969e-06, -1.24800456e-04,
          7.41235417e-05, -1.65440753e-04, -1.82706790e-04,
          -3.12454831e-05, 1.47755985e-04, 1.43269470e-04,
          1.39204582e-04, 2.11776714e-05, -2.81115772e-05,
          1.05012608e-04, -5.52367856e-05, 1.85996803e-04,
          1.96512454e-04, 8.14533778e-05, 4.40770855e-05, 3.43805004e-05,
          1.79217000e-06, -2.90001699e-05, -1.45457625e-05,
          1.11733912e-04, 7.57707749e-05, 1.14787530e-04, 7.80551054e-05,
          6.18511913e-05, -1.97326211e-04, -6.24507593e-05,
          -4.25615644e-06, -7.68201135e-05, 1.78202710e-04,
          -1.20032062e-04, -2.19064299e-04, -1.42052406e-04 ]
      - [ -8.78680003e-05, 1.96255974e-06, -7.23768171e-05,
          4.58038885e-05, 1.37660536e-04, 1.97395450e-04, 1.45056751e-04,
          5.24161114e-05, -1.17293297e-04, 3.69212503e-05,
          1.82249074e-04, 1.53845205e-04, 7.89909536e-05, 1.43907018e-04,
          -9.32825569e-05, -1.57117727e-04, 2.14376545e-04,
          4.37367344e-05, 4.78662769e-05, -1.82671829e-05,
          -2.68235199e-05, -7.64315846e-05, -1.41437107e-04,
          -3.13098863e-05, 2.26631644e-04, 7.75787485e-05,
          4.87355646e-06, -1.23315636e-04, -1.10678469e-04,
          -2.00852937e-05, -1.04118417e-05, 3.74958145e-05,
          4.18502634e-04, 4.56802081e-05, 1.25573322e-04, 2.66691700e-06,
          -1.43573852e-04, 7.35500726e-05, 3.83365223e-05,
          3.49772250e-04, 1.78935108e-04, -1.56325361e-04,
          -1.58672483e-04, -3.17864382e-04, -2.15891123e-05,
          2.18947916e-05, 2.66722869e-04, 2.75991479e-04,
          -1.45812795e-04, 2.19144367e-05, -1.21350859e-04,
          5.86496390e-05, 6.55125550e-05, 5.25515825e-05,
          -1.01377824e-04, -1.84038567e-04, -1.05025865e-04,
          6.69727960e-05, 8.83241446e-05, 1.35033348e-04, 1.84578268e-04,
          1.37641226e-04, -1.57830189e-04, -1.34412272e-04 ]
      - [ -2.84836482e-04, -1.91155632e-04, 5.01247414e-05,
          1.94462627e-04, 9.10299423e-05, 7.31437976e-05, 7.08697553e-05,
          2.11985625e-05, -7.42802004e-05, -2.31356444e-05,
          -6.23298256e-05, 1.24227270e-04, 8.17043401e-05,
          1.99610993e-04, 1.02304330e-04, 7.72974308e-05, 3.09835486e-05,
          8.01313872e-05, 1.35833485e-04, 1.47719416e-04,
          -5.20216563e-05, 1.35035980e-05, -7.96455060e-05,
          -3.24950815e-05, -7.98174278e-06, 1.36701463e-04,
          -3.54445074e-05, 6.26165274e-05, -7.57366579e-05,
          8.23742885e-05, 6.61658414e-05, 5.24761299e-06, 2.08300102e-04,
          6.87396323e-06, -1.18506410e-04, -9.46825094e-06,
          -6.61692611e-05, -5.76726552e-06, 5.36422776e-05,
          1.59261355e-04, 8.08899786e-05, 1.27543835e-05,
          -3.13028681e-06, -8.05847449e-05, 9.93922949e-05,
          1.05214851e-04, 1.09465582e-04, 8.98524813e-05,
          -6.82237078e-05, -8.07063698e-05, -1.20503588e-04,
          7.68076934e-05, 1.63960853e-04, 4.52000495e-06, 7.08129301e-05,
          -3.23873574e-05, 6.65764310e-05, -2.90047956e-05,
          -1.12458038e-04, -1.18058533e-05, -7.08229345e-05,
          -3.32625823e-05, 1.90808787e-05, -7.67676538e-05 ]
      - [ 3.55103955e-04, 3.71047281e-05, -1.90888517e-04,
          -1.19693039e-04, -8.29572527e-05, 6.28945127e-05,
          -1.38226780e-04, 3.43586034e-05, -9.41532708e-05,
          3.97528493e-05, 2.53113612e-05, -1.16767624e-04,
          -1.38333853e-04, -4.92991021e-05, 2.04816679e-04,
          4.31974244e-04, -4.32774599e-04, 3.04541227e-05,
          -5.22823539e-05, -3.51341238e-04, 1.64670739e-04,
          1.97587477e-04, 1.49492902e-04, 1.85551617e-04,
          -2.18018133e-04, -3.10025731e-04, 1.75554000e-04,
          3.31578311e-04, 1.75539593e-04, -1.17727774e-04,
          3.30517592e-04, -2.28927092e-04, 2.18345551e-04,
          2.83215952e-04, -8.63632449e-05, 1.61143951e-04,
          5.82939065e-05, 3.09465628e-04, 6.16816746e-04, 1.52617693e-04,
          7.32354019e-05, -6.80569428e-05, -1.21646503e-04,
          -1.66660931e-04, 2.13378662e-04, 9.84080616e-05,
          3.21131520e-04, -1.55731788e-04, -4.90199658e-04,
          -4.69837163e-04, -4.50185180e-04, 5.27888653e-04,
          1.18957047e-04, 1.39775921e-06, 2.00685376e-04,
          -5.25302930e-05, -4.90776030e-04, -2.71347235e-04,
          1.48291224e-06, -2.00847717e-04, 6.94229791e-04,
          8.16760294e-05, 6.48874615e-04, 1.15031085e-04 ]
      - [ 8.57528503e-05, -3.50697519e-04, -3.22343927e-04,
          -3.18088714e-04, -8.93587494e-05, -9.98782809e-04,
          -5.04652387e-04, -1.15613009e-04, -4.36065340e-04,
          -3.56992969e-04, 1.87423007e-04, 6.22060907e-04,
          1.62737386e-04, 2.17868037e-05, -8.43120390e-04,
          -4.82362375e-04, 1.25653714e-05, 3.50715593e-04,
          2.71640194e-04, 9.12203453e-04, 1.97993417e-04, 4.10750712e-04,
          1.76772839e-04, 9.84166472e-05, -3.81163642e-04,
          -2.08789512e-04, 3.97598575e-04, 2.57055828e-04,
          3.65888409e-04, 1.51042696e-04, -3.62842082e-04,
          1.62299883e-04, 4.52326727e-04, -3.16400896e-04,
          -1.39094656e-04, 3.46505665e-04, -3.93372728e-04,
          7.67374731e-05, 1.19754950e-04, 4.76752903e-04, 7.57570961e-05,
          -8.47324773e-05, 1.00685917e-04, -6.48796558e-04,
          4.47676430e-05, -1.79337017e-04, 2.58578424e-04,
          4.79596201e-04, -5.13836101e-04, 2.98971499e-05,
          -6.33112970e-04, 2.33631523e-04, 4.57555434e-04,
          1.51185930e-04, -2.06481374e-04, -8.04327952e-04,
          -2.65771469e-05, -1.64320823e-04, 6.75533056e-06,
          -3.58979305e-04, -2.65262555e-04, 1.35297218e-04,
          -3.27902497e-04, -2.95869308e-04 ]
      - [ -8.87097631e-05, -1.30672910e-04, -2.26341194e-06,
          1.20590623e-04, 6.76917116e-05, 1.37569950e-05,
          -9.08872462e-05, -3.89280431e-05, -1.58626310e-04,
          -1.13702474e-04, 1.71064894e-04, 4.15233917e-05,
          1.55785980e-04, 2.08230849e-04, 4.21304721e-05,
          -1.30823755e-04, 2.12417090e-05, 6.99038574e-05,
          1.60268755e-04, 2.30842707e-04, -4.09105014e-05,
          -8.18171884e-06, -6.74311741e-05, -1.23602103e-06,
          8.17855325e-05, 2.06907930e-06, -2.68471595e-05,
          -2.12469949e-05, -1.80575898e-05, -5.75734521e-05,
          1.21333629e-04, 9.91010438e-07, 9.29801172e-05, 5.03325318e-05,
          -2.07664416e-04, -2.56863859e-05, -1.43507728e-04,
          2.25683507e-05, 1.06404710e-04, 1.72205891e-05, 1.44699137e-04,
          9.54382813e-07, 7.71923442e-05, -9.71663176e-05,
          -1.27145162e-04, -1.11368754e-04, 2.82494093e-05,
          1.34535410e-04, -2.02280586e-04, 1.03172251e-05,
          -3.19385836e-05, -5.84194777e-06, 1.21169018e-04,
          1.10278539e-04, 3.14991368e-04, -9.92542773e-05,
          -2.21687951e-04, -1.48564839e-04, 1.95886901e-06,
          1.26393687e-04, 1.31588924e-04, -6.18829072e-05,
          -1.62467368e-05, -2.03243893e-04 ]
      - [ -1.46164093e-04, -8.48567797e-05, 1.13821879e-05,
          5.15215652e-05, 1.77975508e-05, -1.29130087e-04,
          -9.65764048e-05, -1.36378716e-04, -1.39889496e-04,
          -1.24377650e-04, -1.55105608e-05, 2.37075525e-04,
          2.38872584e-04, 2.08306577e-04, 1.35921015e-04,
          -2.04601038e-05, -1.05846128e-04, 1.05843988e-04,
          1.50308319e-04, 8.00712805e-05, 2.23355353e-04, 3.82514809e-05,
          -3.52689894e-05, -5.50140903e-05, -2.10180278e-05,
          -7.22739132e-05, -4.96687389e-05, -4.02565893e-05,
          -3.39499711e-05, -8.41845758e-05, -5.05324060e-05,
          -8.42739100e-05, -1.54731169e-04, -1.85613477e-04,
          -1.31182576e-04, -8.23451264e-05, 1.16205323e-04,
          1.01716956e-04, 1.94835171e-04, -4.77634894e-05,
          5.18324887e-05, 2.14584325e-05, 3.55687735e-05, 3.31264018e-05,
          -5.30298394e-06, 8.50765427e-05, 1.09343076e-04,
          3.50786058e-06, 3.39898725e-05, 1.42263991e-04, 5.59674675e-07,
          -1.80333682e-05, -4.78381371e-05, -9.79129163e-06,
          1.19998775e-04, 3.77710312e-05, -1.65826365e-04,
          3.19743376e-05, -2.37641088e-05, -2.34592208e-05,
          -3.07821574e-05, -3.65669912e-05, -1.13054070e-04,
          -9.94822622e-05 ]
      - [ -1.65804537e-04, 1.67922975e-04, 2.68058619e-04,
          3.98203294e-04, 5.35975734e-04, 3.84373088e-05,
          -2.93146411e-04, -3.24731896e-04, -1.78647359e-04,
          3.51504641e-05, 3.56698118e-04, 2.65817594e-04, 2.95097183e-04,
          4.83987067e-04, -3.19226529e-04, -6.80156299e-05,
          4.27646301e-04, -4.55131085e-04, -6.86583735e-05,
          -7.39371972e-05, -5.85512789e-05, 1.59592761e-04,
          1.41115655e-04, 7.74217624e-05, 2.87502451e-04,
          -3.48376459e-04, 1.73112312e-05, -2.65056471e-04,
          4.68112958e-05, 4.01043289e-05, 1.73845547e-04,
          -2.07351884e-04, 3.35877790e-04, 3.77334567e-04,
          -6.12688018e-04, -5.34974621e-04, -2.42661437e-04,
          1.23846417e-04, -2.19271024e-04, 2.42453170e-04,
          6.59969694e-04, 2.19638372e-04, -7.51783373e-05,
          -6.21214916e-04, -5.40660636e-04, -3.93803348e-04,
          9.79265023e-05, 1.68706276e-04, -3.21962434e-05,
          2.48406548e-04, 5.84824593e-05, 2.11574647e-04, 1.37931802e-05,
          1.83789889e-04, -1.75335430e-04, -2.90099182e-04,
          2.87696457e-06, -1.75791447e-05, -1.08986082e-04,
          9.32192488e-05, 5.63587446e-06, -4.74455846e-05,
          1.78403643e-04, -7.50401596e-05 ]
      - [ -1.82919102e-04, -1.32205110e-04, 1.12821283e-04,
          1.05616185e-04, 7.68399477e-05, -1.93077412e-05,
          -9.95852588e-06, -4.23248912e-06, -6.18113409e-05,
          -7.97588145e-05, -8.32320366e-05, 1.65332371e-04,
          1.31052380e-04, 1.23568039e-04, 5.91858698e-05, 2.13073745e-05,
          -8.37224652e-05, 5.99098785e-05, 8.07262186e-05,
          9.00754821e-05, 8.11385398e-05, 3.86124048e-05,
          -5.78035615e-05, -2.58113996e-05, -7.61241827e-05,
          -2.44598014e-05, -1.14788209e-05, 1.40026459e-05,
          -1.03240418e-05, 5.38390414e-05, 7.00438295e-06,
          -3.52721363e-05, 4.11410911e-05, 4.25028447e-05,
          -4.46468257e-05, -1.15224306e-04, -2.30880287e-05,
          3.37101992e-05, 2.48912529e-05, 4.91329665e-05, 9.61770202e-05,
          2.18515856e-06, 4.66270212e-05, -5.46547972e-06,
          1.85879944e-05, 6.96397876e-07, 5.79556217e-05, 2.70794044e-05,
          1.80253137e-05, 6.60804062e-06, 2.16182780e-05,
          -2.86378836e-05, 3.89233210e-05, -1.13370461e-05,
          1.06767075e-04, 6.80388839e-05, 4.79994633e-05, 4.38192319e-06,
          -2.53842209e-05, -8.87138522e-05, -4.90119055e-05,
          3.13891869e-05, 1.11893751e-05, -9.91074739e-06 ]
      - [ 1.51234790e-05, 8.90130195e-06, 3.04693123e-04,
          -2.45607458e-04, -7.55328665e-06, -5.55718816e-06,
          -2.58567714e-04, 1.35913415e-05, -1.02258491e-05,
          -7.31295848e-04, -3.78256227e-04, 1.99848277e-04,
          1.51132073e-04, -2.29593425e-04, -4.23691235e-05,
          9.24441789e-04, -2.58841494e-04, 2.79830885e-04,
          -4.42898272e-05, -1.74477653e-04, 5.12876781e-04,
          4.18505690e-04, 3.14973033e-04, 1.28215988e-05, 1.06256499e-04,
          -7.74085056e-04, -1.21256991e-04, 4.94666863e-04,
          2.30492573e-04, 5.23921553e-05, -3.67715111e-05,
          -3.55310272e-04, 8.01105052e-05, 3.23293323e-04,
          -9.25753193e-05, -5.59006759e-04, -9.31229806e-05,
          1.27195337e-04, 5.92067488e-04, 1.38324569e-04, 1.75688638e-05,
          5.44526893e-06, 1.12956142e-04, -2.14962667e-04,
          9.16396020e-05, -6.26175024e-04, 4.33641617e-05,
          -8.93478573e-04, 5.62397281e-06, -3.37939746e-05,
          -4.93899337e-04, -3.23028245e-04, -3.46417772e-04,
          2.25931421e-04, 3.03478271e-04, 4.26720042e-04,
          -4.37534240e-04, -5.58787899e-04, -3.35329423e-05,
          -1.00232035e-04, 4.29047766e-04, 7.83041614e-05,
          4.50727472e-04, 2.52826576e-04 ]
      - [ -2.30672478e-04, -1.19880635e-04, 4.96590546e-05,
          -1.29217669e-05, -1.09953166e-04, -4.74526460e-04,
          -3.80204496e-04, -7.50891340e-05, -2.25167401e-04,
          -1.85405122e-04, 7.87344106e-05, 2.98919593e-04,
          2.63441325e-04, 1.38099727e-04, -2.61808076e-04,
          -2.06084384e-04, -2.14310116e-04, 7.99876943e-05,
          1.21287112e-05, 3.27241869e-04, 4.66711150e-04, 2.60499335e-04,
          -2.76604878e-05, -4.28936146e-05, -2.66408868e-04,
          -8.23132461e-04, -1.61562843e-04, 1.17960037e-04,
          1.58693685e-04, -1.05052561e-04, -7.58484312e-05,
          1.02174454e-05, -1.44075180e-04, -1.31686320e-04,
          -1.65877354e-04, -3.80114012e-04, -7.84544172e-05,
          -3.25738256e-05, 8.03083894e-05, -2.26971588e-05,
          5.40592264e-05, 9.38140220e-05, -7.63267235e-05,
          -1.95542583e-04, 1.17359064e-04, -6.33841555e-05,
          3.99605087e-05, -1.47295010e-04, 1.26849322e-04,
          -8.91659947e-05, -4.07684784e-05, -1.22985321e-05,
          6.46663102e-05, 1.21273188e-04, 1.43913931e-04, 8.35823448e-05,
          1.59089286e-05, 1.61873046e-04, 2.10311235e-04,
          -1.74598841e-04, -1.09927110e-04, -4.02287515e-05,
          -1.03743638e-04, 2.30751131e-04 ]
      - [ -2.48882774e-04, -1.43210636e-04, 1.34858536e-04,
          1.30140979e-04, 4.84003613e-05, -1.77343449e-04,
          -2.37191387e-04, -6.77252392e-05, -1.76744084e-04,
          -3.22259701e-04, -5.67970892e-05, 1.32823407e-04,
          2.63053924e-04, 1.15138799e-04, -2.24290197e-05,
          1.90713748e-04, -1.46726816e-04, 7.27192892e-05,
          1.16118092e-04, 1.69113846e-05, 1.42058227e-04,
          -4.04602470e-05, 2.13808349e-07, -2.16487279e-05,
          2.42657352e-05, -2.81706361e-05, 1.60391457e-04,
          -9.67318192e-05, -1.62454562e-05, -1.42039251e-04,
          3.84930245e-05, 1.41481229e-04, -1.82902557e-04,
          -3.14602948e-05, -2.23318100e-04, -2.78091262e-04,
          -8.97418722e-05, 1.09722838e-04, 1.89125029e-04,
          -5.71939927e-05, 1.65070043e-04, 1.01312726e-04,
          -5.01558225e-06, -4.82721298e-05, -2.11628751e-04,
          -1.59416595e-04, -4.62685312e-05, -2.76038554e-05,
          -8.08777040e-05, 6.72939277e-05, 3.20208346e-05,
          -2.16671779e-05, -3.33164144e-06, 1.03335326e-04,
          1.70171843e-04, 5.57618405e-05, -1.87023048e-04,
          -1.42720804e-04, 3.98608099e-05, 6.96689604e-05,
          3.46375673e-05, 2.62490994e-05, -3.57642093e-05,
          -8.77728235e-05 ]
      - [ -3.17281992e-05, 6.58930076e-05, 3.30610528e-05,
          -5.41053741e-05, -8.11135578e-06, 4.69214028e-05,
          6.38984347e-05, 3.90746209e-05, -2.79820815e-05,
          2.48556371e-05, 1.02853955e-04, -5.31679689e-05,
          -2.11674196e-05, -1.60700401e-05, -1.62657947e-04,
          -1.31434252e-04, 7.01793542e-05, 5.22897462e-05,
          -1.13545895e-04, -6.08167356e-05, -1.68344723e-05,
          4.37554554e-05, -2.62249068e-06, -1.08853474e-05,
          5.02274961e-05, 5.32581544e-05, 9.14413395e-05,
          -1.31322406e-04, -2.75718248e-05, 2.90235294e-05,
          7.60789699e-05, 5.91175121e-05, 1.39879092e-04, 1.57337927e-04,
          1.03785467e-04, 2.30481673e-05, -1.35347669e-04,
          -1.62378157e-04, 1.87641999e-05, 1.39407479e-04,
          8.79697764e-05, -2.24288688e-05, -2.31301980e-04,
          -2.28313846e-04, -8.69768919e-05, -2.91867923e-06,
          -2.46590516e-05, 1.04934254e-04, -8.35243627e-05,
          -1.42349993e-04, -1.63306959e-05, -1.43314610e-05,
          1.36509370e-05, -1.01984675e-04, -1.14669332e-04,
          -3.26312111e-05, 4.50643493e-05, 1.03115643e-04,
          6.13460361e-05, 4.08754386e-05, -8.38806682e-06,
          4.82838695e-05, 9.90131739e-05, -8.91820491e-06 ]
      - [ -4.40253061e-04, -1.53762769e-04, 5.00902534e-05,
          2.63096794e-04, 2.04607495e-04, 1.58256502e-04, 3.08753399e-04,
          -7.97517278e-05, -1.00689518e-04, 3.99362980e-05,
          -3.30543000e-04, 1.12081715e-07, -3.93740947e-06,
          -4.33328250e-06, 3.24948405e-06, -8.69012820e-06,
          -5.89176962e-05, 1.10934372e-04, -3.58361249e-05,
          -1.55256261e-04, -7.94695079e-05, 6.07458896e-05,
          -1.02485777e-04, -1.73093067e-04, -3.44016938e-04,
          -2.29078669e-05, 1.77467009e-04, 3.41352425e-04,
          9.79265242e-05, 8.65749025e-05, -2.31211425e-06,
          5.97702001e-06, 3.23491055e-04, 2.92161247e-04, 9.80804107e-05,
          -2.35321058e-04, -2.59880064e-04, -2.71553756e-04,
          -1.60929223e-04, 2.33373808e-04, 2.44938652e-04,
          -1.48563078e-04, -9.27470101e-05, -2.77116313e-04,
          -1.95442524e-04, -6.04483284e-05, -3.77870747e-05,
          7.85379525e-05, -1.04960462e-04, -3.00314539e-04,
          1.26359679e-04, 1.69433097e-05, -2.12916239e-05,
          6.06472931e-05, -9.71592381e-05, -1.18897966e-04,
          4.47870436e-04, 1.79652416e-04, -4.02729120e-06,
          -5.41867339e-05, -3.40701285e-04, 1.69367031e-05,
          1.04789680e-04, 8.10974016e-05 ]
      - [ 3.25650588e-04, 1.58565468e-04, 4.59300754e-05,
          -2.59385444e-04, -1.30660541e-04, 1.67838763e-04,
          6.86199055e-05, 1.16938536e-04, 4.65779412e-05, 2.61175337e-05,
          -1.12842004e-04, -1.11093126e-04, -1.79831113e-04,
          -1.21420460e-04, -8.69788164e-06, 1.27704101e-04,
          -1.28110900e-04, -1.19270946e-04, -9.78703101e-05,
          -6.51303417e-05, -6.19230832e-06, 2.76357478e-05,
          5.81231252e-05, 5.43174701e-06, -6.61198137e-05,
          -1.14746166e-04, 4.70398991e-05, 9.98954238e-06,
          2.83109985e-04, 1.32487097e-04, -5.68127143e-05,
          -3.03247452e-05, 1.15809496e-04, 1.97945948e-04,
          7.56132649e-05, 5.28808778e-05, -1.89253013e-04,
          5.82949469e-05, 1.36261178e-05, 9.15295823e-05,
          -6.31613366e-05, -1.78506834e-05, 1.42307341e-04,
          -1.19237920e-04, -1.06286680e-05, -2.48109252e-04,
          -7.26341095e-05, -2.00962022e-04, -1.01557416e-04,
          -2.06819313e-04, -1.50329419e-04, 4.89656486e-05,
          2.70267697e-06, 1.41757591e-05, -1.79590752e-05,
          -1.22195983e-04, -6.90072775e-05, -1.19806951e-04,
          -5.48018106e-05, 1.16831425e-05, 2.05765798e-04,
          1.06998763e-04, 8.05890813e-05, 2.29838515e-05 ]
      - [ 1.61579184e-04, 2.05125762e-04, -1.29146385e-04,
          -4.03208222e-04, -6.23353117e-05, 1.83289776e-05,
          1.63500546e-04, 2.06008262e-04, 2.61312607e-06, 5.20834510e-05,
          -2.08502985e-04, -1.81856783e-04, -2.41133879e-04,
          -1.57573915e-04, -3.43873660e-04, -1.62295139e-04,
          -2.24677628e-04, -1.56849579e-04, -1.49732819e-04,
          -2.62153972e-05, 6.91282839e-05, 1.14035684e-04,
          -1.45861020e-04, -2.50337180e-04, -2.51287071e-04,
          -1.21373785e-04, 8.37074622e-05, 1.75368419e-04,
          2.82579946e-04, -2.51815691e-05, -8.60441360e-05,
          -8.79271174e-05, 1.01848418e-04, 2.11012200e-04,
          5.78183535e-05, 1.63835968e-04, -3.03200446e-04,
          -1.42464065e-04, -2.91038188e-04, 4.10530956e-05,
          -1.24968661e-04, -1.61884309e-04, -2.44610983e-05,
          -3.48138885e-04, -1.65685691e-04, -2.08511061e-04,
          2.77770250e-05, -3.87106556e-05, -1.23022546e-04,
          -1.11045185e-04, -2.55570718e-04, 4.59588882e-05,
          1.50231528e-04, 8.26549658e-05, -2.73429934e-04,
          -1.63997509e-04, 2.76205246e-04, 9.26860776e-06,
          2.16916073e-04, -1.71737793e-05, -1.22309008e-04,
          1.18644166e-04, 5.28781493e-05, 5.66573290e-05 ]
      - [ 5.12468505e-05, 2.64034497e-06, -2.86256865e-04,
          -1.02067643e-04, 3.24315741e-04, 6.01750333e-04,
          -5.75282957e-06, 1.17722149e-04, -1.58867595e-04,
          -1.80325835e-04, -4.40150208e-04, -8.02392315e-04,
          -5.61836176e-04, -1.32678528e-04, -4.65832156e-04,
          -2.51407706e-04, -3.57437384e-05, -9.52341361e-05,
          -3.94232047e-04, -4.59838338e-04, -4.48237639e-04,
          -2.52538332e-04, -1.33679365e-04, 4.05099185e-04,
          8.47021933e-04, 1.11127461e-04, 2.59363209e-04, 1.51187778e-04,
          4.60486772e-04, 1.40498960e-04, -9.09655355e-05,
          -1.70080122e-04, 2.89609925e-05, 1.60791009e-04,
          -3.46344284e-04, -1.84632314e-04, -1.35979126e-03,
          -7.94447318e-04, -4.03174112e-04, -2.20935704e-04,
          2.35991320e-05, 2.78539868e-04, -1.79543422e-04,
          -7.84342294e-04, -9.26976325e-04, -4.20725934e-04,
          1.69822481e-04, -2.93620305e-05, 4.64684927e-05,
          -1.22295736e-04, 1.03092563e-04, 5.72634279e-04,
          2.56597617e-04, 2.88266543e-04, -2.10129583e-04,
          -3.46160523e-04, -1.22930083e-04, 2.08388679e-04,
          5.58027241e-04, 6.72132359e-04, 1.94625129e-04, 6.90932793e-04,
          -3.09883326e-04, 3.34366981e-04 ]
      - [ -1.85174267e-05, -1.20211087e-04, -9.34867348e-05,
          1.51896224e-04, 8.11911304e-05, 1.46649210e-04,
          -8.62589659e-05, 8.51166915e-05, -2.12404542e-04,
          -4.71619132e-05, -1.44351128e-04, 2.33717699e-04,
          1.24908274e-05, 5.13474843e-05, 9.35623320e-05, 2.46357289e-04,
          -1.37587267e-04, 1.81156702e-05, 1.42878533e-04,
          1.61645337e-04, 1.20467746e-04, -9.53785348e-05,
          -6.00392923e-05, -2.56516137e-06, -1.77411275e-04,
          -2.04426688e-04, 1.36748989e-04, 3.50363436e-04,
          7.67680394e-05, 7.32413537e-05, -1.75719877e-04,
          -1.73606808e-04, -5.91934149e-05, -7.23497287e-05,
          -8.77266357e-05, -8.92847092e-05, 2.92125678e-05,
          1.57534407e-04, -1.54920388e-04, 4.39391006e-05,
          -1.44742386e-04, 8.99011284e-05, 1.97807662e-04,
          2.22473420e-04, 1.65715901e-04, -1.55292182e-05,
          7.97440807e-05, -4.75154548e-06, 2.54606894e-05,
          3.06271113e-06, 8.53507299e-05, -9.07203430e-05,
          2.02198207e-04, 7.43480559e-05, 1.22899728e-04, 8.84676410e-06,
          8.30671124e-05, -4.23933743e-05, -1.54517533e-04,
          -1.68191429e-04, -1.81490468e-04, -1.60456941e-04,
          7.43713899e-05, 5.41037225e-05 ]
      - [ 1.17988915e-04, 1.01668957e-05, -4.56959860e-05,
          -8.58084386e-05, -1.23693142e-04, 3.92207112e-05,
          1.83877764e-05, 7.32525041e-06, 1.67826820e-05,
          -2.81674256e-05, -7.35905414e-05, -8.69121068e-05,
          -1.26825078e-04, -1.11208567e-04, 7.34169589e-05,
          7.00517121e-05, -1.46598977e-04, -7.31724722e-05,
          8.16918146e-06, -4.97754726e-08, 6.18113772e-05,
          9.50768444e-05, 6.82700265e-05, -1.93624396e-06,
          -1.65613183e-05, -2.35639127e-05, -2.99128260e-05,
          1.38325355e-04, 1.63641511e-04, 2.25432086e-05, 2.68766162e-05,
          -1.02738450e-04, -9.82836500e-05, -3.63768959e-05,
          1.59639603e-05, 4.20631804e-05, 5.02944240e-05, 8.19989236e-06,
          1.29394524e-04, -1.66500089e-04, -1.28051339e-04,
          -9.92749992e-05, 8.88742507e-05, 1.28560350e-04,
          2.78786119e-05, -3.96635514e-05, -6.97967698e-05,
          -8.94957702e-05, 6.79360237e-05, 2.32559378e-05,
          -5.14940912e-05, -8.28076099e-06, -2.91637862e-05,
          3.60576523e-05, -3.23125420e-07, 1.20945107e-04,
          -8.61045701e-05, -2.08419122e-04, -4.18340387e-05,
          3.47652895e-05, 1.13760645e-04, 4.43374011e-05, 7.09766828e-05,
          4.66566453e-05 ]
      - [ -2.98372361e-05, -7.61407355e-05, -1.27977226e-04,
          -1.05898529e-04, 4.11359506e-05, -3.77525546e-04,
          -5.41895570e-04, 7.57066446e-05, 2.73409478e-05,
          1.17669755e-04, -3.80914833e-04, -5.06410899e-04,
          1.80306233e-04, 2.04503012e-05, -1.47378349e-04,
          7.97521643e-05, -6.97556883e-04, -3.75053583e-04,
          9.46982618e-05, 2.27327080e-04, 2.70179036e-04, 1.43847108e-04,
          -2.69890807e-05, -1.30930198e-06, -4.72422893e-04,
          -2.68137257e-04, 3.25747096e-04, 4.12237976e-04,
          2.04114491e-04, 1.98890004e-04, -4.33615569e-05,
          -1.80750139e-04, -2.56263709e-04, -6.43650419e-05,
          -1.86184290e-04, -3.89778725e-05, -5.45052753e-05,
          -9.33999836e-05, -1.36088085e-04, -2.84627342e-04,
          -2.92916593e-05, 1.15133960e-04, 3.26152076e-04,
          3.67382017e-04, 2.01076153e-04, -2.06029144e-05,
          -1.70588086e-04, -2.61711481e-04, 3.54797492e-04,
          2.19437090e-04, 3.06551483e-05, 1.87114478e-04, 1.75505265e-04,
          -4.51735432e-05, 7.85476586e-05, 1.00236568e-04,
          1.85417928e-04, -1.69138948e-05, 4.38320712e-05,
          -1.95914545e-04, -2.00532042e-04, -3.85157211e-04,
          2.01587623e-04, 2.23904921e-04 ]
      - [ 1.49966130e-04, -2.04300632e-05, -2.25268144e-04,
          -6.94501286e-05, 2.25819022e-05, -4.35742477e-05,
          -5.83110632e-05, -4.94766828e-05, 6.38904112e-06,
          -1.87507336e-04, -4.90580424e-05, -6.97019495e-05,
          1.93984379e-05, 1.35793289e-05, 9.67339947e-05, 1.62715471e-04,
          -2.09649588e-04, -1.14193499e-05, 2.25972879e-04,
          8.43711241e-05, 1.41558034e-04, -4.48250903e-05,
          1.16208712e-05, -7.58683746e-05, -7.62085183e-05,
          2.11331007e-06, 6.63344399e-05, 1.13875263e-04,
          -3.77743563e-05, 3.50689334e-05, 4.97576730e-05,
          -5.83195106e-05, -1.75633962e-04, -1.12340866e-04,
          -1.89158309e-04, -1.58385319e-05, 1.21676327e-04,
          1.17718148e-04, 5.52627789e-05, -3.10875650e-04,
          -7.32051485e-05, 2.82558558e-05, 2.14086453e-04,
          1.78976145e-04, -5.09497113e-05, -6.09632261e-05,
          -3.71199567e-05, -1.71360327e-04, 1.34235393e-04,
          2.16231838e-05, -5.73544412e-06, -7.90290651e-05,
          6.31865405e-05, 1.05055842e-04, 1.71756154e-04, 8.72261444e-05,
          -1.69820050e-04, -1.45169557e-04, 1.35102882e-05,
          8.81883534e-05, 6.03955596e-05, -8.23470764e-05,
          -8.63521273e-05, -1.13151094e-04 ]
      - [ 1.84782388e-04, 6.90135566e-05, -3.30692819e-05,
          -9.86869345e-05, -7.96501845e-05, -1.91398144e-07,
          -6.11238511e-06, -5.12234601e-06, 3.57639583e-05,
          -4.62118260e-06, 5.58395504e-06, -8.81075466e-05,
          -6.80870507e-05, -4.03757876e-05, -1.76306967e-05,
          -1.28138918e-05, -5.51012854e-05, -6.62606690e-05,
          -2.25824260e-05, -7.77385139e-05, 4.69387633e-05,
          2.27843575e-05, 6.61414888e-05, 4.24858299e-05, 4.68414764e-05,
          -2.99533895e-05, -1.04948103e-05, -2.49343543e-06,
          7.92721767e-05, 3.48086687e-05, 1.91360905e-05,
          -1.43797724e-05, -1.06115018e-04, 3.90061468e-05,
          3.47794885e-05, 2.31857484e-05, -3.98222764e-05,
          2.80560835e-05, 5.17812005e-05, -6.68175853e-05,
          -3.26426634e-05, 1.63756777e-05, 2.74417198e-06,
          -1.74917932e-05, -2.85178030e-05, -5.73301622e-05,
          -2.83636818e-05, -6.35198521e-05, -1.43996449e-05,
          -5.30928664e-05, -6.12753001e-06, 7.15188653e-05,
          -3.83017941e-05, -3.84651730e-06, 8.26672931e-07,
          -5.47640084e-05, -1.18764343e-04, -8.29866476e-05,
          -8.22265702e-06, 1.31356355e-04, 7.82023199e-05,
          2.11135557e-05, 1.29064001e-05, 1.53908586e-05 ]
      - [ 3.61081300e-04, 4.27088205e-04, -1.80268893e-04,
          -2.79399625e-04, -2.53527018e-04, -2.24409068e-05,
          -1.14623741e-04, -4.34700887e-05, -1.92921125e-05,
          5.83177061e-05, -9.39365345e-05, -1.52475885e-04,
          -1.17479882e-04, -3.64060870e-05, -2.18775298e-04,
          -3.40308587e-04, -1.23404927e-04, -4.67227546e-05,
          -5.80929627e-05, -7.98276596e-05, 1.58805182e-04,
          -1.36281757e-04, 9.62261402e-05, -8.71210141e-05,
          -8.74433827e-05, -1.17347125e-04, 5.47824566e-05,
          2.06379133e-04, 1.62591474e-04, -1.23850026e-04,
          6.43270178e-05, -6.37893027e-05, -3.51009512e-05,
          -2.20711314e-04, 5.88529656e-05, 1.79735172e-04,
          -1.56111331e-04, 6.95349663e-05, -1.46567938e-04,
          -2.86330585e-04, -3.39709550e-05, 1.41577853e-04,
          -1.61066870e-04, 2.88516039e-05, -1.92067120e-04,
          -1.44877980e-04, -6.25539324e-05, -1.06648222e-04,
          -2.55629478e-04, 1.09651388e-04, -8.88064824e-05,
          -3.11739350e-05, 1.35491384e-04, 1.08372529e-04,
          -3.77901451e-04, -1.73945256e-04, 5.44277027e-05,
          9.72697744e-05, 4.74386979e-05, 1.24010534e-04,
          -5.67890565e-05, 6.12614895e-05, 2.65066251e-06,
          7.81711697e-06 ]
      - [ 2.23148701e-04, 1.58009148e-04, -9.64149367e-05,
          -1.59549993e-04, -5.95942947e-05, -1.96228193e-05,
          -2.86901868e-05, -4.91909123e-05, -4.59551593e-05,
          9.95285518e-06, 6.45933469e-05, -9.64099017e-05,
          -1.97310746e-05, -6.01754346e-06, 7.58490069e-06,
          -1.47734580e-04, -1.41931832e-06, -1.42847557e-05,
          1.25790102e-05, 2.20450129e-05, -1.98541911e-05,
          -1.13167762e-05, 3.18254679e-05, 6.22433727e-05,
          9.67725355e-05, 1.85911358e-05, -2.46072104e-05,
          -1.45070017e-05, -1.37763145e-05, 9.83144764e-06,
          7.38825065e-06, 3.86217653e-05, -1.37149807e-04,
          4.11811334e-06, -1.52174980e-05, -4.88615369e-05,
          -4.27757732e-05, 4.84222874e-05, -7.27241695e-06,
          -7.91010243e-05, -2.12143150e-05, 5.34482824e-05,
          2.46810087e-05, -1.06858024e-04, -8.60714645e-05,
          -3.48554313e-05, -6.62362072e-06, -9.47763911e-05,
          2.22018480e-05, -5.78980107e-05, 1.12821508e-05,
          7.60733164e-05, -1.21384628e-05, 8.09048797e-05,
          4.07457374e-05, -1.25049744e-04, -2.63814465e-04,
          -1.00833888e-04, 1.05395498e-04, 2.20606642e-04,
          1.37592593e-04, -2.48179604e-05, -1.04228835e-04,
          -7.78139365e-05 ]
      - [ -1.57104980e-04, -7.33280513e-06, -6.43595631e-05,
          1.22932688e-04, 1.53970686e-05, 2.93626126e-05,
          -3.46764049e-04, -2.64848990e-04, -1.22152764e-04,
          -1.05097257e-04, 9.29955422e-05, 1.23360660e-04,
          2.81573128e-04, -5.03730043e-05, -3.37549573e-04,
          -2.79893342e-04, 9.18906590e-05, -9.05616544e-05,
          1.86072022e-04, 2.73449608e-04, -7.40501418e-05,
          -9.28089794e-05, -1.31977489e-04, -7.06238716e-05,
          -5.02261428e-05, -1.80829356e-05, -3.45167496e-06,
          4.25258768e-05, -1.77565496e-04, -3.08071380e-04,
          -1.35691400e-04, 1.44625330e-04, 2.27157143e-05,
          -8.16558604e-05, -1.57830567e-04, -3.10128780e-05,
          -7.57943126e-05, -8.91106029e-05, -3.34434269e-04,
          1.32456815e-04, -9.20972743e-05, -5.79637890e-05,
          7.26185026e-05, -1.49246363e-04, 2.16687513e-05,
          1.00738136e-04, 1.97469963e-05, -9.11104653e-05,
          8.79322761e-06, 1.59159812e-04, 1.25355989e-04,
          -8.56151455e-05, -2.68034946e-05, 4.71282256e-05,
          6.25220200e-05, -1.40150049e-04, 2.06707598e-04,
          1.45870479e-04, 5.71541023e-05, -1.67822262e-04,
          -1.76423229e-04, -8.60224463e-05, -1.71912936e-04,
          8.61058379e-06 ]
      - [ -5.50255703e-04, -2.02684547e-04, -1.19785436e-04,
          1.18805612e-04, 1.38321469e-04, -1.73856315e-04,
          -2.23302399e-04, -3.31515592e-04, 4.75455745e-04,
          -9.27305373e-05, -5.10631398e-05, 2.34483741e-04,
          4.37198411e-04, -1.31293900e-05, -1.15988005e-04,
          -7.97034736e-05, 5.47943819e-05, 3.00894695e-04,
          2.69156269e-04, 1.16308518e-04, -1.62206532e-04,
          -9.11200186e-04, -1.28582516e-03, -5.67014795e-04,
          -1.90482184e-04, 2.79443339e-04, 1.80063391e-04,
          1.60382493e-04, -3.74331983e-04, -1.00222183e-03,
          2.56031053e-04, 4.79538576e-04, 3.02370958e-04, 1.37983079e-04,
          -1.98957292e-04, -1.33897644e-04, -3.83678911e-04,
          -2.67166237e-04, 2.11399689e-04, -3.13226919e-05,
          3.85678810e-04, 2.55641469e-04, 3.72815703e-04, 9.12928735e-05,
          7.59483199e-04, 4.89859804e-06, 2.77738727e-04, 7.34657282e-04,
          -1.35377835e-04, 2.67670519e-04, -2.82396650e-04,
          -4.65528166e-04, -2.14208353e-06, -1.04707324e-04,
          8.69027572e-04, 3.76194134e-06, 1.50551996e-05,
          -2.04786465e-05, 2.21765236e-04, 4.83725104e-04,
          -1.19658260e-04, -9.62102727e-04, -6.85559236e-04,
          -4.68718208e-04 ]
      - [ -9.45581050e-05, -1.74022032e-04, 8.58756248e-05,
          -1.22350932e-04, 1.85875659e-04, 1.85833109e-04,
          1.52906694e-04, 2.27044366e-05, 5.27722295e-05,
          -4.59170369e-05, 9.64108476e-05, 6.77959251e-05,
          -4.68836115e-05, 1.29865177e-04, 3.06072325e-04,
          1.86564415e-04, 1.18654760e-04, 1.59642470e-04,
          -3.44552973e-05, -8.90266983e-06, -2.39435340e-05,
          -5.03502204e-04, 3.61900602e-05, -1.23145932e-04,
          1.09868546e-04, 3.70741938e-04, -5.70918291e-06,
          -6.99169468e-05, -3.14944540e-04, 9.68218137e-06,
          1.61841963e-04, 2.70405202e-04, -2.56600615e-05,
          2.33318613e-04, 2.69687171e-05, -1.73394699e-04,
          -1.29959826e-05, -1.92147236e-05, 5.99501327e-05,
          2.62515168e-05, 2.26012908e-05, 4.24663776e-05, 7.76987508e-05,
          -2.29811012e-05, -8.17062537e-05, -1.09443361e-04,
          -1.48500902e-07, 5.57602871e-05, -4.67223836e-05,
          -3.88610439e-04, -1.74787710e-04, 7.26907674e-05,
          4.90696766e-05, -4.80904600e-05, 2.32085440e-04,
          1.91940577e-04, -3.36088677e-04, -2.56336119e-04,
          8.76963168e-05, 4.07137151e-04, 1.77239344e-04,
          -1.00590354e-04, -5.61480265e-05, -2.13574021e-04 ]
   uncompressed_sv_total: 724
   uncompressed_support_vectors:
      - [ 3.99251733e+03, 1.31254797e+03, 2.54995923e+03, 3.92772485e+03,
          0., 0., 0., 2.10344556e+03, 1.53002344e+03, 8.97091858e+02,
          3.03295227e+02, 0., 0., 0., 0., 5.91044873e+03, 3.98124756e+03,
          0., 4.47213602e+00, 0., 0., 5.42912170e+02, 9.45784485e+02,
          9.24758301e+02, 1.14364075e+03, 0., 0., 0., 3.97402710e+03,
          2.05681055e+03, 9.68644836e+02, 7.99826904e+03, 1.44307935e+03,
          0., 0., 1.10574304e+03, 1.47469800e+03, 2.73186035e+03,
          4.57476514e+03, 5.32229980e+03, 2.52304077e+03, 0., 0.,
          3.85603424e+02, 9.70469910e+02, 1.93685303e+02, 1.83442078e+03,
          1.45708447e+03, 1.97132983e+03, 7.41049255e+02, 7.33899353e+02,
          0., 1.24390088e+03, 0., 4.27156708e+02, 2.41359351e+03,
          7.03708887e+03, 3.37028369e+03, 1.80926868e+03, 3.86767969e+03,
          0., 0., 0., 5.67007935e+02 ]
      - [ 2.64258911e+03, 4.89502197e+03, 5.90093945e+03, 2.49002014e+02,
          0., 0., 1.35013599e+03, 4.69563629e+02, 4.56449341e+02,
          8.47543518e+02, 2.58659009e+03, 0., 0., 0., 0., 1.03468544e+02,
          7.65378723e+02, 0., 0., 6.97198792e+02, 1.47366724e+03,
          1.00162451e+03, 4.45985229e+02, 1.20928320e+03, 9.84536987e+02,
          8.02229309e+02, 1.23949365e+03, 8.69248779e+02, 3.73257715e+03,
          1.85430298e+03, 2.30538184e+03, 4.30659814e+03, 1.18527039e+03,
          0., 8.29630554e+02, 1.33300659e+03, 1.92210730e+03,
          1.13554041e+03, 2.01361194e+03, 4.68917529e+03, 2.25540063e+03,
          1.07182776e+03, 1.41919519e+03, 3.04690002e+02, 5.15554077e+02,
          5.36346924e+02, 3.98986237e+02, 2.50060938e+03, 2.08751099e+03,
          1.37693848e+03, 2.78902417e+03, 1.60882898e+03, 0.,
          8.20731430e+01, 3.98727936e+02, 2.98140698e+03, 1.68042810e+03,
          2.92899878e+03, 2.31892798e+03, 3.14767163e+03, 1.44417957e+03,
          0., 0., 1.01295795e+03 ]
      - [ 5.19446191e+03, 3.90012915e+03, 2.72606396e+03, 3.42334717e+03,
          1.74571533e+03, 0., 0., 0., 1.87302148e+03, 5.13947705e+03,
          1.61394324e+03, 2.47288501e+03, 0., 0., 0., 2.40831890e+01,
          1.33102588e+03, 0., 0., 2.55017578e+03, 2.81305566e+03,
          1.91364844e+03, 5.06919861e+02, 1.67936035e+03, 1.67739746e+03,
          0., 0., 0., 3.80314453e+03, 5.60504395e+03, 2.65738501e+03,
          2.84804492e+03, 2.34589282e+03, 1.41421356e+01, 1.73441635e+02,
          2.51336426e+02, 5.55095264e+03, 3.25529663e+03, 1.66305347e+03,
          5.03130518e+03, 6.83830139e+02, 2.08884010e+01, 0., 0.,
          4.43655859e+03, 2.98436304e+03, 2.82842712e+01, 1.06682947e+03,
          0., 6.71369092e+03, 2.53752588e+03, 1.83023950e+03, 0., 0.,
          4.24264050e+00, 2.68990692e+02, 3.24348706e+03, 8.95630176e+03,
          1.91279321e+03, 3.93522754e+03, 0., 0., 0., 0. ]
      - [ 7.37340381e+03, 2.34364380e+03, 5.40477979e+03, 1.88054651e+03,
          3.20024994e+02, 7.61577368e+00, 0., 0., 1.43245554e+01,
          4.04783875e+02, 7.85490967e+02, 2.89088226e+02, 1.35288562e+03,
          0., 0., 0., 5.13821045e+03, 7.65879700e+02, 2.07894211e+02, 0.,
          2.95058691e+03, 1.35697266e+03, 1.91027734e+03, 2.23415479e+03,
          8.34297180e+02, 1.07782458e+03, 2.28870435e+03, 1.36724524e+03,
          3.66787378e+03, 4.87356104e+03, 3.12802588e+03, 2.79581665e+03,
          3.16227770e+00, 0., 0., 0., 1.16037085e+03, 8.00312842e+03,
          6.99314648e+03, 1.17664539e+03, 0., 3.58050270e+01,
          1.83540454e+03, 2.56641943e+03, 0., 5.40816040e+02,
          8.90242676e+02, 4.23933960e+02, 7.18662842e+02, 5.05183252e+03,
          2.00450073e+03, 1.92389124e+03, 1.25004005e+02, 0.,
          7.27561401e+02, 3.48260303e+03, 1.75420435e+03, 8.51278711e+03,
          3.34859277e+03, 4.37013721e+03, 7.60065796e+02, 0., 0.,
          2.51396484e+03 ]
      - [ 1.12320386e+03, 3.27596045e+03, 1.63126855e+03, 1.73109399e+03,
          1.69829211e+03, 0., 0., 0., 0., 3.03001758e+03, 3.62505188e+02,
          1.18785718e+03, 2.08086517e+02, 6.79615356e+02, 4.64605194e+02,
          0., 0., 1.30084595e+02, 1.96796738e+02, 1.33600781e+03,
          5.33158508e+02, 7.03045105e+02, 1.29577893e+03, 6.34717285e+02,
          1.21174756e+03, 0., 0., 0., 2.99503247e+03, 1.89495667e+03,
          1.83298560e+03, 2.03882410e+03, 0., 0., 8.45340118e+01,
          7.18401123e+02, 3.06025391e+03, 3.29042114e+03, 1.42427673e+03,
          1.09900317e+03, 0., 3.33829620e+02, 8.44757202e+02,
          5.76003479e+02, 6.59146423e+02, 2.63511768e+03, 1.52288904e+03,
          0., 1.17836633e+03, 7.65398926e+02, 1.36992651e+03,
          2.77688354e+03, 4.29287628e+02, 0., 0., 0., 1.52979639e+03,
          1.43516394e+03, 3.50140039e+03, 3.32285400e+03, 38., 0.,
          1.02459755e+02, 0. ]
      - [ 5.31037158e+03, 2.25773706e+03, 5.04980273e+03, 4.81814746e+03,
          8.28613281e+01, 0., 4.60651703e+01, 0., 8.93985413e+02,
          1.41741602e+03, 2.89780884e+03, 2.22804840e+02, 9.24592224e+02,
          0., 1.04383093e+03, 0., 2.83789404e+03, 5.65685415e+00, 0., 0.,
          2.56456635e+02, 4.99484961e+03, 1.34836865e+03, 3.31210010e+03,
          5.24169800e+02, 0., 0., 8.02261169e+02, 5.14761230e+03,
          4.64787695e+03, 4.67083545e+03, 2.60180347e+03, 9.81053467e+02,
          1.60216577e+03, 3.11623242e+03, 3.82452490e+03, 3.05757397e+03,
          2.36966309e+03, 2.98012280e+03, 2.63882153e+03, 3.70223535e+03,
          1.77641284e+03, 2.03604968e+03, 2.31677783e+03, 3.92794214e+03,
          1.92421402e+02, 0., 0., 5.30827295e+03, 1.57651111e+03,
          1.64550513e+03, 2.03783545e+03, 3.61496558e+03, 3.62215424e+02,
          2.96984844e+01, 1.91637280e+03, 3.74452490e+03, 6.45741992e+03,
          2.88044897e+03, 5.02152100e+03, 2.70625928e+03, 0., 0.,
          3.10177368e+02 ]
      - [ 9.17706055e+03, 1.68871472e+03, 9.80545959e+02, 4.45223541e+02,
          6.25105164e+02, 1.31201074e+03, 0., 0., 3.19013428e+03,
          7.44526672e+02, 5.60786926e+02, 0., 0., 0., 7.07106781e+00,
          1.33264221e+03, 4.31883740e+03, 2.12132034e+01, 0.,
          1.26789502e+03, 5.62275757e+02, 2.63180542e+02, 7.68691528e+02,
          3.98020081e+02, 3.23637061e+03, 0., 0., 1.80143994e+03,
          1.77376550e+03, 1.17667114e+03, 2.44631982e+03, 2.91844556e+03,
          2.85236755e+02, 0., 0., 0., 0., 1.77200455e+02, 9.35691309e+03,
          2.91804395e+03, 0., 0., 0., 0., 4.29979065e+02, 6.80523315e+02,
          1.07460181e+03, 1.67881824e+03, 2.59696045e+03, 2.10424341e+03,
          1.01904181e+03, 0., 0., 0., 1.35955872e+02, 1.64017236e+03,
          3.07115405e+03, 3.68390015e+03, 4.65121777e+03, 0., 0., 0., 0.,
          2.05060974e+02 ]
      - [ 3.44029102e+03, 4.85622705e+03, 1.68395972e+03, 1.29355420e+03,
          0., 0., 0., 0., 1.57268225e+03, 6.17427551e+02, 2.09618698e+02,
          0., 0., 5.94810867e+01, 0., 3.67235718e+03, 3.79913306e+03,
          1.27279224e+01, 0., 1.56518372e+02, 0., 0., 6.10175354e+02,
          2.91362012e+03, 1.51819775e+03, 9.84885712e+01, 0., 0., 0.,
          3.21207300e+03, 4.27006250e+03, 5.29784180e+03, 1.29453711e+03,
          1.23223381e+02, 3.25419739e+02, 0., 4.08078955e+03,
          3.05368359e+03, 2.47542334e+03, 6.68389746e+03, 1.74937048e+03,
          1.02719141e+03, 7.94637573e+02, 0., 1.42072156e+03,
          4.05842346e+02, 8.23203491e+02, 1.10176233e+03, 3.00942285e+03,
          1.42888892e+03, 7.47753967e+02, 6.22047424e+02, 7.13122681e+02,
          4.30116272e+02, 0., 1.06817517e+03, 7.56548975e+03,
          6.68650293e+03, 1.73452490e+03, 1.54451929e+03, 2.01380957e+03,
          1.98116135e+02, 0., 1.67326343e+03 ]
      - [ 9.23290625e+03, 1.97197302e+03, 1.47059521e+03, 9.37406372e+02,
          4.04561060e+03, 1.39671036e+02, 3.81837654e+01, 0.,
          1.35271460e+03, 1.30840588e+03, 6.17198181e+02, 1.55138062e+03,
          4.70106392e+01, 0., 0., 1.18473633e+02, 1.90220728e+03, 0.,
          1.52551636e+02, 1.22241772e+03, 5.42706177e+02, 7.24492920e+02,
          1.08710803e+03, 2.25425073e+03, 3.54396631e+03, 0., 0., 0.,
          2.01078186e+03, 3.85832910e+03, 3.06755054e+03, 7.19954541e+03,
          1.50641663e+03, 0., 0., 0., 5.90348193e+03, 3.16270166e+03,
          3.22221802e+03, 3.85326563e+03, 9.01723572e+02, 2.40416298e+01,
          1.29653381e+02, 4.00552588e+03, 7.54147217e+02, 5.65422485e+02,
          7.14492859e+02, 7.10696838e+02, 1.62804358e+03, 5.62611816e+03,
          1.98904089e+03, 1.42940552e+02, 0., 0., 1.55563488e+01,
          3.94085175e+02, 4.22607715e+03, 9.57556836e+03, 3.04435571e+03,
          1.37295947e+03, 0., 0., 0., 0. ]
      - [ 4.99119580e+03, 6.74044678e+03, 1.49960571e+03, 2.97620801e+03,
          2.02664880e+03, 0., 1.02956305e+01, 8.24621105e+00,
          1.07703295e+01, 0., 9.12063293e+02, 0., 0., 0., 5.65685415e+00,
          3.05052417e+03, 3.74369849e+03, 3.22490311e+01, 0., 0.,
          1.51334448e+03, 1.22608350e+03, 8.37406982e+02, 1.46123096e+03,
          0., 3.07728052e+03, 9.35577881e+02, 4.07556055e+03,
          2.64267139e+03, 2.70695532e+03, 3.64489429e+03, 5.17840576e+03,
          0., 0., 0., 6.32455540e+00, 2.69764282e+03, 7.06726904e+03,
          9.45455078e+03, 1.82509705e+03, 0., 1.49114733e+01,
          2.00369659e+02, 1.98748169e+03, 0., 9.48240967e+02,
          4.27268707e+02, 0., 3.69529419e+02, 4.20631787e+03,
          1.04129712e+03, 1.47370447e+03, 8., 0., 4.84148750e+01,
          2.64416846e+03, 4.13215479e+03, 1.67127002e+03, 5.85424268e+03,
          8.95197656e+03, 6.34512573e+02, 0., 0., 1.37919922e+03 ]
      - [ 3.13355542e+03, 2.55960645e+03, 3.75615387e+02, 1.16332800e+03,
          0., 0., 0., 0., 2.63604932e+03, 1.25607861e+03, 3.32929413e+02,
          0., 0., 0., 0., 1.01805762e+03, 1.43523975e+03, 3.20315460e+02,
          0., 0., 6.81916443e+02, 9.14049255e+02, 0., 1.29038574e+03,
          1.15993591e+03, 0., 0., 8.54400406e+01, 1.34116187e+03,
          7.75074707e+02, 1.72128711e+03, 2.27699561e+03, 1.03997876e+03,
          0., 3.49284973e+01, 0., 6.54987488e+02, 1.82396387e+03,
          1.72797522e+03, 2.21488965e+03, 6.56002991e+02, 3.00734985e+02,
          4.87165283e+02, 3.78208923e+02, 0., 0., 1.23583887e+03,
          1.07522668e+03, 1.50374243e+03, 2.73467383e+03, 6.13098694e+02,
          5.33810852e+02, 0., 0., 5.65685415e+00, 0., 3.66898584e+03,
          2.87221899e+03, 1.77661060e+03, 7.38075867e+02, 0., 0., 0., 0. ]
      - [ 6.39044434e+03, 3.97740796e+03, 1.35033655e+03, 9.55931396e+02,
          7.91854797e+02, 1.46037122e+03, 0., 1.30297925e+03,
          8.05358838e+03, 0., 0., 0., 0., 0., 0., 4.00510895e+02,
          6.99611084e+02, 9.89949512e+00, 0., 1.71221826e+03,
          3.34293274e+02, 7.89227478e+02, 0., 4.64128857e+03,
          6.16116821e+02, 0., 0., 0., 1.93724866e+03, 3.96784082e+03,
          4.16474902e+03, 4.67993701e+03, 3.37116919e+03, 4.18502075e+02,
          1.25286365e+03, 3.26459778e+02, 1.17809631e+03, 2.32770166e+03,
          2.26890894e+03, 2.65225098e+03, 3.25916406e+03, 5.82897400e+02,
          2.69072475e+01, 0., 0., 0., 1.88714587e+03, 2.80113428e+03,
          1.43763184e+03, 2.85738159e+03, 3.81971704e+03, 0., 0.,
          3.36154709e+01, 0., 0., 5.33700732e+03, 4.15232861e+03,
          3.37674048e+03, 3.84062573e+03, 0., 0., 0., 0. ]
      - [ 1.24367639e+03, 5.58764746e+03, 1.81029883e+03, 3.33990161e+03,
          6.45979858e+02, 1.00892194e+03, 0., 1.33701157e+02, 0.,
          3.12615234e+03, 1.69166028e+03, 2.23758804e+02, 3.44342139e+03,
          0., 3.95979805e+01, 0., 1.37315027e+03, 1.69705620e+01, 0.,
          2.66077710e+03, 1.33543433e+03, 1.29289551e+03, 1.26100549e+03,
          1.20607886e+03, 9.91326355e+02, 2.18324341e+02, 0.,
          1.97740149e+03, 3.39423413e+03, 3.08015552e+03, 2.47806665e+03,
          1.40338867e+03, 0., 1.60031250e+02, 0., 0., 5.93358447e+03,
          4.42473730e+03, 1.20730933e+03, 1.41582043e+03, 0.,
          1.49773163e+02, 0., 5.33075989e+02, 5.90520654e+03,
          1.37353561e+02, 8.75844727e+02, 6.64078293e+01, 1.03873938e+03,
          1.00852319e+03, 1.23992139e+03, 5.22754199e+03, 0., 0., 0., 0.,
          1.44413477e+03, 1.86043030e+03, 3.78849683e+03, 6.23358887e+03,
          0., 0., 0., 0. ]
      - [ 4.89146338e+03, 4.03950122e+03, 1.44277661e+03, 9.28040588e+02,
          0., 0., 0., 0., 0., 4.39829498e+02, 0., 0., 0., 0.,
          1.94270325e+02, 3.76107764e+03, 2.27430566e+03, 1.10923393e+02,
          0., 0., 3.05368622e+02, 1.16516090e+02, 3.30151489e+02,
          1.13712500e+03, 6.88600037e+02, 2.34546356e+02, 0.,
          1.41795624e+02, 1.74993689e+03, 1.64775903e+03, 1.04091895e+03,
          7.90650391e+03, 0., 0., 0., 6.89492569e+01, 9.12134277e+02,
          1.48146997e+03, 1.95227905e+03, 1.04648057e+04, 4.66921173e+02,
          0., 0., 0., 2.65699066e+02, 6.67216797e+02, 0., 0.,
          1.40481274e+03, 3.58022339e+02, 3.12166626e+02, 3.56252716e+02,
          0., 0., 2.23738144e+02, 5.32850488e+03, 5.16102734e+03,
          1.45039941e+03, 1.36056860e+03, 2.44711670e+03, 90., 0.,
          4.19447266e+02, 4.29516022e+02 ]
      - [ 2.68400122e+03, 6.25797119e+03, 5.95778711e+03, 1.87146570e+03,
          0., 0., 0., 0., 1.83790967e+03, 2.96295776e+03, 2.29962451e+03,
          2.05197693e+02, 0., 9.54148865e+01, 0., 0., 3.59765320e+02, 0.,
          0., 1.67142505e+03, 1.89539197e+03, 9.35479553e+02,
          8.04061646e+02, 7.53159973e+02, 2.26668799e+03, 1.31603223e+03,
          0., 0., 5.10508984e+03, 2.22455249e+03, 4.26520752e+03,
          4.65339551e+03, 1.39769788e+03, 0., 1.16517151e+03, 0.,
          6.03072607e+03, 4.19731396e+03, 7.49040100e+02, 2.16072583e+03,
          3.78470361e+03, 7.60452454e+02, 3.34212494e+02, 2.58622974e+03,
          8.12009888e+02, 6.09776978e+02, 1.04293042e+03, 2.15365161e+03,
          2.69907422e+03, 1.29926794e+03, 1.28134851e+03, 7.95181763e+02,
          2.01178027e+03, 2.68923767e+02, 1.39489001e+03, 1.45062268e+03,
          1.82370654e+03, 4.88381055e+03, 2.82563696e+03, 3.77193994e+03,
          1.82544299e+03, 0., 2.51765762e+02, 1.50436084e+03 ]
      - [ 4.20830762e+03, 4.81672070e+03, 4.54353320e+03, 3.27299951e+03,
          2.93945557e+02, 0., 0., 0., 1.61429102e+03, 3.82268115e+03,
          3.08829736e+03, 1.68820068e+03, 9.48683357e+00, 0.,
          8.60232544e+00, 1.01980391e+01, 0., 0., 0., 0., 9.51548279e+02,
          1.98403784e+03, 4.67639746e+03, 3.23620239e+03, 0., 0., 0., 0.,
          1.51238135e+03, 5.46024268e+03, 4.88677734e+03, 4.95389746e+03,
          9.46081360e+02, 1.38369592e+03, 8.12288147e+02, 3.12007544e+03,
          5.27623975e+03, 2.51667480e+03, 1.51047815e+03, 3.70726904e+03,
          3.13420990e+02, 7.37629395e+02, 8.76118652e+02, 3.08796655e+03,
          4.51675879e+03, 4.81663818e+01, 1.50233154e+02, 1.78954919e+03,
          2.93509717e+03, 1.42064819e+03, 1.78792212e+03, 8.08853271e+02,
          1.29653394e+03, 0., 6.29068756e+01, 5.22803711e+03,
          3.77944849e+03, 2.61233154e+03, 1.48622388e+03, 3.41798926e+03,
          1.72796667e+03, 2.20918625e+02, 4.64211182e+02, 2.48934814e+03 ]
      - [ 2.58622827e+03, 1.35120386e+03, 3.68913965e+03, 1.11890308e+03,
          0., 0., 0., 0., 2.82446472e+02, 0., 3.07626404e+02,
          1.37295303e+02, 6.84527283e+02, 4.42307434e+02, 1.45247168e+03,
          2.30653418e+03, 8.79915137e+03, 1.76669052e+02, 0., 0.,
          6.99968567e+02, 0., 1.05989844e+03, 0., 5.57957275e+03, 0., 0.,
          1.71365625e+03, 1.41318408e+03, 1.07879602e+03, 7.99543884e+02,
          1.19863708e+03, 1.01580615e+03, 0., 0., 1.78393396e+03,
          1.86694971e+03, 1.09927124e+03, 4.77416748e+03, 2.53219238e+03,
          2.25883569e+03, 3.21422876e+03, 4.95889099e+02, 0.,
          7.43462646e+02, 3.84096344e+02, 4.37383728e+02, 1.47025793e+03,
          1.80353491e+03, 2.66313525e+03, 3.79987329e+03, 0.,
          3.33766403e+01, 9.48261566e+01, 2.60863953e+02, 1.99819263e+03,
          5.93210840e+03, 4.08822388e+03, 1.83892419e+03, 2.77923804e+03,
          4.79416290e+02, 0., 6.00333252e+01, 1.50484277e+03 ]
      - [ 1.95624255e+03, 8.83494434e+03, 7.21277734e+03, 2.51023779e+03,
          0., 0., 0., 0., 0., 2.40831909e+01, 1.56026172e+03,
          1.38075647e+03, 0., 0., 0., 6.67083206e+01, 6.20322456e+01, 0.,
          0., 0., 3.69080542e+03, 1.51321484e+03, 6.89089966e+02,
          3.53748505e+02, 1.38912927e+03, 6.08098450e+02, 2.00057678e+03,
          7.01194702e+02, 5.87397949e+03, 6.29107275e+03, 1.93642419e+03,
          6.95441504e+03, 3.16227770e+00, 2.82842708e+00, 1.35801331e+02,
          1.94737061e+03, 3.77748022e+03, 2.20523535e+03, 8.29652637e+03,
          5.54472217e+03, 0., 0., 0., 0., 1.47667090e+03, 2.21237524e+03,
          1.15049026e+02, 0., 0., 1.15846973e+03, 1.61247754e+03,
          3.05474854e+03, 2.00818896e+03, 4.78539429e+01, 8.62531586e+01,
          3.89414575e+03, 5.40181934e+03, 1.92042590e+03, 4.45426172e+03,
          4.32549951e+03, 4.61247266e+03, 2.00543079e+03, 1.12881726e+03,
          1.87837195e+03 ]
      - [ 2.22283600e+02, 2.77381714e+03, 2.95331982e+03, 4.87968701e+03,
          0., 0., 0., 0., 0., 0., 2.34294653e+03, 8.36747253e+02,
          2.33026563e+03, 3.76247284e+02, 3.34619202e+02, 3.14331055e+02,
          1.19313855e+03, 1.83847771e+01, 2.17848572e+02, 0.,
          3.91209424e+03, 2.20399536e+03, 7.52772156e+02, 0., 0., 0., 0.,
          3.89158051e+02, 6.08579297e+03, 2.44426831e+03, 1.21208960e+03,
          1.08010010e+03, 0., 0., 2.26636276e+02, 3.05431348e+03,
          1.75840649e+03, 5.57349219e+03, 1.82598621e+03, 1.20824304e+03,
          1.98080780e+02, 0., 3.56202209e+02, 4.16509375e+03,
          1.72298413e+03, 1.62787390e+03, 5.58243713e+02, 0., 0.,
          7.74804443e+02, 1.93716931e+03, 2.09483081e+03, 2.25502588e+03,
          0., 1.80272018e+02, 1.07453320e+03, 1.06810010e+03,
          1.92003735e+03, 2.81687817e+03, 3.02010474e+03, 2.90248657e+03,
          0., 4.54532738e+01, 1.19274316e+03 ]
      - [ 3.16330127e+03, 2.12491333e+03, 1.54364575e+03, 3.58718433e+03,
          1.81520691e+03, 0., 0., 0., 2.52352832e+03, 1.66527466e+03,
          1.21061023e+03, 1.22055920e+03, 1.84750513e+03, 0.,
          5.58883545e+02, 3.43284326e+03, 2.35015991e+03, 9.59012512e+02,
          4.77428528e+02, 2.23036108e+03, 2.91628369e+03, 2.27654858e+03,
          8.67286621e+02, 7.55584106e+02, 5.81520203e+02, 5.85853210e+02,
          3.89307068e+02, 0., 7.32340674e+03, 1.98856396e+03,
          2.24215942e+03, 9.82549316e+02, 1.77494360e+03, 0., 0., 0.,
          4.02959082e+03, 3.75414893e+03, 6.89263477e+03, 1.81139111e+03,
          1.73171094e+03, 1.41421354e+00, 0., 0., 1.75692847e+03,
          3.04398218e+03, 1.49746484e+03, 1.78626123e+03, 2.41788477e+03,
          1.60695789e+03, 2.64728540e+03, 1.49186353e+03, 0., 0., 0.,
          6.80294037e+01, 7.25450049e+03, 3.30576855e+03, 2.73262646e+03,
          5.48971631e+03, 0., 0., 0., 2.63383862e+03 ]
      - [ 4.94986621e+03, 4.07131616e+03, 4.41386182e+03, 0., 0., 0., 0.,
          0., 4.37064941e+03, 7.84967041e+02, 0., 0., 0., 0., 0.,
          4.88447113e+02, 1.57032666e+03, 0., 0., 0., 4.12326630e+02,
          8.22976318e+02, 1.40883643e+03, 1.47194836e+03, 1.54044519e+03,
          0., 0., 4.55411911e+01, 6.83520279e+01, 3.17457861e+03,
          5.31096289e+03, 3.94741089e+03, 1.30777881e+03, 0.,
          3.71712280e+02, 1.60112085e+03, 1.60137952e+03, 1.81076367e+03,
          2.33455933e+03, 4.69890723e+03, 2.98141992e+03, 3.54066772e+02,
          4.76030945e+02, 6.31585327e+02, 9.37837524e+02, 0.,
          1.16775403e+03, 2.02518237e+03, 2.66162256e+03, 1.15304382e+03,
          1.11001465e+03, 1.11824280e+03, 4.73026428e+02, 0.,
          8.72353134e+01, 1.67191602e+03, 6.98437988e+03, 1.67822546e+03,
          1.85012085e+03, 1.65147986e+03, 2.03954138e+03, 0., 0., 0. ]
      - [ 2.77140161e+03, 1.85507532e+03, 4.01000586e+03, 3.17239648e+03,
          1.62684338e+03, 0., 0., 0., 1.34164160e+03, 1.74230762e+03,
          1.52733936e+03, 2.03168176e+03, 7.74765015e+02, 8.03853210e+02,
          4.42574249e+02, 0., 3.80188629e+02, 1.20663086e+02, 0.,
          1.62468579e+03, 2.99175464e+03, 1.57158667e+03, 7.36092407e+02,
          2.27101807e+03, 0., 1.13137083e+01, 9.46678467e+01,
          1.62355286e+03, 5.46049512e+03, 1.70791821e+03, 1.55842249e+03,
          4.16851465e+03, 0., 0., 0., 0., 5.10064600e+03, 7.93629150e+03,
          1.37137231e+03, 5.94516602e+02, 2.45589081e+02, 0., 0., 0.,
          4.29431934e+03, 4.02425977e+03, 0., 3.39106323e+02, 0.,
          7.06508301e+02, 9.96287842e+02, 6.23224316e+03, 0., 0., 0., 0.,
          1.66156030e+03, 1.81590247e+03, 5.50798340e+03, 6.10661084e+03,
          40., 0., 1.72286697e+02, 1.58566724e+03 ]
      - [ 4.56978809e+03, 8.29553027e+03, 1.55705444e+03, 0., 0., 0., 0.,
          0., 1.58904065e+03, 1.34408203e+03, 6.31366821e+02, 0.,
          1.71703186e+02, 0., 1.65529461e+01, 0., 1.86743347e+03,
          9.65401459e+01, 0., 0., 0., 6.69716370e+02, 8.49143127e+02,
          3.42293286e+03, 1.66151587e+03, 0., 0., 0., 1.89884814e+03,
          2.41553174e+03, 2.40605322e+03, 6.92968457e+03, 0.,
          7.72010345e+01, 0., 3.92178027e+03, 9.24072998e+02,
          1.51876599e+03, 7.00866211e+03, 1.53075171e+03, 1.64724658e+03,
          2.37767432e+03, 1.03020264e+03, 0., 1.59691235e+03,
          4.42040749e+01, 2.51259351e+03, 0., 5.02841919e+02,
          2.19421484e+03, 1.81233887e+03, 0., 1.66112476e+03,
          1.23547562e+02, 5.78586914e+02, 2.87370728e+03, 3.99564136e+03,
          3.04563184e+03, 5.25926758e+03, 2.62550488e+03, 0., 0.,
          1.99549292e+03, 1.79036401e+03 ]
      - [ 8.08617188e+03, 4.28600195e+03, 1.02415283e+03, 1.57181799e+03,
          2.36088843e+03, 0., 4.24499741e+01, 0., 0., 4.59624756e+03,
          1.14122620e+03, 5.41202393e+02, 0., 0., 0., 0., 3.86917920e+03,
          1.42204618e+01, 0., 1.89485730e+03, 1.42564246e+03,
          1.17344922e+03, 8.55800232e+02, 1.43624878e+03, 4.15205615e+03,
          2.00337219e+03, 0., 1.89401013e+03, 1.83366345e+03,
          3.87270825e+03, 3.02795068e+03, 4.67101025e+03, 1.62552368e+03,
          0., 0., 0., 5.36596729e+03, 1.74171436e+03, 3.76289893e+03,
          4.55051660e+03, 0., 2.35690979e+02, 2.83931421e+03,
          1.78979626e+03, 1.08059204e+03, 1.16764717e+02, 5.67163086e+02,
          2.18452051e+03, 3.97573511e+03, 2.50754370e+03, 2.20570361e+03,
          2.84433618e+03, 0., 8.81022110e+01, 7.07106781e+00,
          1.70465771e+03, 4.85602539e+03, 4.90338477e+03, 2.64016284e+03,
          5.03542041e+03, 0., 0., 0., 8.72925598e+02 ]
      - [ 4.05117578e+03, 6.84190625e+03, 3.37296338e+03, 8.14312891e+03,
          8.03930603e+02, 3.41180298e+02, 5.96949402e+02, 0.,
          9.14416260e+02, 1.41310583e+03, 3.47305664e+03, 0., 0., 0., 0.,
          0., 1.45801245e+03, 2.82842708e+00, 0., 2.73111548e+03,
          1.00212952e+03, 0., 8.46548462e+02, 4.87294556e+02,
          1.68777478e+03, 2.67015283e+03, 3.62752588e+03, 1.16500537e+03,
          3.59176050e+03, 4.11032715e+03, 6.23323193e+03, 4.74140918e+03,
          1.63330078e+03, 5.96933838e+02, 5.99947571e+02, 5.99077881e+03,
          3.83950146e+03, 2.77024951e+03, 5.72794922e+03, 4.02019312e+03,
          2.02335254e+03, 4.72478577e+02, 3.73757080e+03, 3.16392065e+03,
          1.71882568e+03, 7.84934387e+02, 9.44102661e+02, 2.38972388e+03,
          4.08683618e+03, 2.62411157e+03, 2.76054761e+03, 5.14901221e+03,
          40., 0., 0., 2.03200403e+03, 4.04109009e+03, 7.29160645e+03,
          4.33116553e+03, 6.43118311e+03, 2.17800928e+03, 0., 0., 0. ]
      - [ 1.47942627e+03, 4.43234131e+03, 1.61758020e+03, 2.34999097e+03,
          2.37208179e+03, 3.58050270e+01, 0., 4.43205353e+02, 34.,
          3.30210474e+03, 0., 6.91230850e+01, 1.08407829e+02,
          1.44222050e+01, 0., 4.13037529e+01, 1.69894922e+03, 0., 0.,
          1.21564478e+03, 5.44611816e+02, 1.08961145e+03, 7.00692505e+02,
          6.04648682e+02, 0., 2.03890479e+03, 0., 0., 3.71119238e+03,
          1.51920215e+03, 5.22377832e+03, 1.78493738e+03, 1.66660767e+03,
          3.22886963e+02, 0., 7.92363586e+02, 4.48540527e+03,
          1.40457251e+03, 1.65677466e+03, 2.97070605e+03, 4.,
          6.83012878e+02, 8.29807190e+02, 9.81053955e+02, 8.09147766e+02,
          1.75385284e+02, 1.12294043e+03, 0., 0., 1.37129895e+03,
          3.56808350e+03, 2.58070996e+03, 0., 0., 1.16619034e+01,
          1.84005701e+03, 2.91190857e+02, 1.90714490e+03, 8.14775586e+03,
          3.99035815e+03, 0., 0., 0., 0. ]
      - [ 1.43242383e+03, 2.03981766e+02, 4.67739404e+03, 1.72748901e+03,
          2.81932056e+03, 3.11598053e+02, 3.82049713e+02, 0., 0., 0.,
          6.24187500e+02, 5.86577393e+03, 2.54023621e+02, 7.61347473e+02,
          7.21296509e+02, 1.18456741e+02, 6.13014221e+02, 4.50388733e+02,
          5.96028503e+02, 0., 3.39237695e+03, 1.82781250e+03,
          6.91935120e+02, 2.80931055e+03, 1.40427917e+02, 1.27279224e+01,
          4.97393188e+01, 1.73282202e+03, 2.96002515e+03, 2.14132129e+03,
          2.61011255e+03, 2.06980176e+03, 0., 0., 6.30713882e+01,
          2.11661597e+03, 2.05842725e+03, 3.86450269e+03, 3.58217603e+03,
          1.33911304e+03, 0., 3.11126976e+01, 1.44134375e+03,
          3.61521790e+02, 8.29507080e+02, 3.14222559e+03, 1.04157190e+03,
          7.91637573e+02, 2.97676758e+03, 8.42163147e+02, 1.88083228e+03,
          9.76038086e+02, 9.86134644e+02, 0., 1.32280014e+02,
          3.25308569e+03, 1.68383594e+03, 9.60968933e+02, 4.03760083e+03,
          3.47270166e+03, 1.35498267e+03, 0., 3.39411240e+01,
          1.54948218e+03 ]
      - [ 5.87204980e+03, 6.23186133e+03, 2.43518921e+03, 4.85381543e+03,
          0., 0., 1.27279224e+01, 0., 8.73166992e+02, 9.02108612e+01,
          1.15323218e+03, 8.20796082e+02, 0., 0., 0., 5.89406471e+01, 0.,
          1.41421354e+00, 0., 0., 2.41760208e+02, 8.72623047e+02,
          1.32705762e+03, 1.91604492e+03, 6.84634155e+02, 0., 0., 0.,
          3.52736035e+03, 6.07072168e+03, 3.77409814e+03, 6.59525049e+03,
          0., 3.95979805e+01, 2.35003357e+02, 5.98418066e+03,
          9.23753906e+02, 1.63308545e+03, 4.89972021e+03, 5.19629492e+03,
          3.61842261e+03, 5.01732239e+02, 6.09590034e+01, 1.52970581e+01,
          7.29024658e+02, 8.76461548e+02, 1.02923254e+03, 1.07563934e+02,
          9.92494080e+02, 1.35263049e+03, 2.15081329e+02, 1.03501917e+03,
          0., 4.47213602e+00, 1.48416962e+02, 5.99739795e+03,
          2.03122058e+03, 2.86426489e+03, 4.12282227e+03, 5.21182520e+03,
          2.03864478e+03, 0., 0., 1.78008167e+03 ]
      - [ 4.62720068e+03, 3.26977051e+03, 9.72773438e+02, 1.26813745e+03,
          1.58398239e+02, 0., 5.47424866e+02, 8.56002319e+02,
          3.57174756e+03, 4.85571838e+02, 0., 0., 0., 0., 7.21476257e+02,
          1.03365918e+03, 1.78389392e+03, 0., 0., 7.59605179e+01, 0., 0.,
          2.06694482e+03, 3.00230444e+03, 0., 0., 0., 0., 0.,
          3.18348706e+03, 3.89710791e+03, 3.18421631e+03, 0., 0., 0.,
          8.52877426e+01, 1.30451758e+03, 1.47154272e+03, 4.92865723e+03,
          4.59716211e+03, 4.14004822e+02, 7.72297241e+02, 4.84148712e+01,
          2.40333115e+02, 0., 9.18812805e+02, 1.77935889e+03,
          4.27992285e+03, 1.40519238e+03, 1.69720947e+03, 1.25606030e+03,
          4.38036530e+02, 1.42583154e+03, 3.82800201e+02, 4.41921387e+02,
          5.25441650e+02, 4.40042676e+03, 4.17535156e+03, 1.53492383e+03,
          1.21965759e+03, 1.88724841e+03, 0., 0., 8.73265259e+02 ]
      - [ 4.67602051e+03, 4.24079346e+03, 4.02361108e+03, 9.48523804e+02,
          1.85129675e+03, 7.61577320e+00, 4.36450920e+01, 9.87319641e+01,
          1.42210938e+03, 5.88266602e+03, 8.14396729e+02, 3.86077728e+02,
          9.40033997e+02, 0., 0., 0., 1.42701050e+03, 1.41404922e+02,
          2.95194855e+02, 1.72027783e+03, 1.23953931e+03, 2.61107251e+03,
          1.05776758e+03, 2.24692236e+03, 1.46128345e+03, 6.93541641e+01,
          0., 0., 4.47291260e+03, 4.10268652e+03, 3.16727002e+03,
          2.67650488e+03, 1.63592773e+03, 0., 0., 1.87002670e+02,
          2.48138818e+03, 4.77949365e+03, 3.03975073e+03, 3.00176196e+03,
          1.16000244e+03, 1.04442005e+01, 0., 8.99200745e+02,
          1.83342615e+03, 1.32537659e+03, 1.09767334e+03, 2.86400171e+03,
          1.45220410e+03, 5.04518652e+03, 3.25384717e+03, 0., 0., 0., 0.,
          0., 3.54561987e+03, 7.32235645e+03, 2.66869922e+03,
          3.05721655e+03, 0., 0., 0., 0. ]
      - [ 2.74173413e+03, 2.23719141e+03, 2.04811426e+03, 2.85706470e+03,
          1.96340381e+03, 7.56875000e+02, 1.46212659e+03, 5.31333643e+03,
          3.30605499e+02, 0., 0., 0., 4.71529980e+03, 1.27864087e+03,
          7.10996643e+02, 3.82182080e+03, 0., 0., 0., 1.92832117e+03,
          2.18060986e+03, 1.94665332e+03, 3.36156396e+03, 2.95283472e+03,
          0., 0., 0., 1.91197168e+03, 3.67506396e+03, 2.92989868e+03,
          4.46428027e+03, 5.75678906e+03, 0., 0., 0., 0., 3.43887769e+03,
          5.03627344e+03, 4.73048096e+03, 4.17808984e+03, 0., 0., 0.,
          6.79923157e+02, 1.25993408e+03, 4.51072998e+03, 2.93782861e+03,
          1.96616479e+03, 2.61840161e+03, 2.37303345e+03, 2.43352905e+03,
          4.11857813e+03, 1.57257736e+02, 0., 0., 1.59567139e+03,
          1.56938477e+03, 6.29341016e+03, 1.70379211e+03, 6.89726709e+03,
          0., 0., 0., 0. ]
      - [ 1.75632825e+03, 6.09400293e+03, 2.25819434e+03, 6.27085938e+03,
          0., 0., 0., 0., 0., 0., 7.49348145e+02, 1.61207764e+03,
          8.54906250e+02, 1.73233948e+02, 8.54751434e+01, 0.,
          1.77556372e+03, 0., 2.82028381e+02, 3.71066040e+02,
          5.59676367e+03, 8.42117554e+02, 1.22773389e+03, 0.,
          8.28620544e+02, 1.90078381e+03, 3.95213867e+02, 3.65876025e+03,
          3.29869653e+03, 6.31875391e+03, 2.71125220e+03, 4.11278076e+03,
          0., 0., 1.91049728e+02, 3.99430981e+03, 2.12331055e+03,
          6.92694092e+03, 2.90939844e+03, 8.34659424e+02, 5.60121399e+02,
          1.60031250e+02, 2.39199365e+03, 5.75397754e+03, 1.63787695e+03,
          0., 5.72915344e+02, 0., 0., 3.15228198e+03, 3.87397314e+03,
          4.33606543e+03, 1.86709009e+03, 0., 0., 2.80122607e+03,
          1.64999792e+03, 3.11684546e+03, 5.05076660e+03, 9.11763770e+03,
          138., 0., 0., 8.03990021e+01 ]
      - [ 3.96426050e+03, 7.76683838e+03, 0., 0., 0., 0., 0., 0.,
          1.02900842e+03, 0., 0., 0., 0., 0., 0., 2.21531036e+02,
          4.77738672e+03, 1.41421354e+00, 0., 0., 0., 1.47864294e+03,
          5.74421448e+02, 5.90716553e+02, 1.37889502e+03, 1.63487927e+03,
          8.87298523e+02, 0., 1.58037781e+03, 2.41992773e+03,
          1.98154260e+03, 2.92663110e+03, 0., 9.46446533e+02,
          1.56249634e+03, 0., 1.58897009e+03, 7.27377319e+02,
          5.69516943e+03, 3.09752026e+03, 3.52634790e+03, 7.76865417e+02,
          1.04708948e+03, 0., 0., 5.18808228e+02, 6.61508911e+02,
          4.27338287e+02, 1.35128955e+03, 1.62480371e+03, 0.,
          7.59876282e+02, 1.51750122e+03, 0., 3.72209595e+02,
          3.40801855e+03, 5.72612646e+03, 2.08514575e+03, 2.73817358e+03,
          2.41075586e+03, 1.59961450e+03, 1.60312195e+02, 6.33618164e+02,
          3.67144482e+03 ]
      - [ 3.19888232e+03, 7.46135156e+03, 6.23274805e+03, 6.53331482e+02,
          0., 0., 0., 0., 0., 4.67219092e+03, 1.68460510e+03,
          1.75104443e+03, 0., 0., 0., 9.00222168e+01, 4.20074121e+03,
          2.82842708e+00, 0., 1.87852185e+03, 3.89039795e+03, 0.,
          1.53463477e+03, 1.40520093e+03, 2.66600415e+03, 8.73843811e+02,
          9.37469940e+01, 3.76244067e+03, 1.94782629e+03, 4.87715771e+03,
          2.00631067e+03, 2.68900977e+03, 0., 0., 2.40831890e+01,
          1.87480896e+03, 4.33992725e+03, 2.96193237e+03, 5.50214502e+03,
          1.26599756e+03, 3.56751282e+02, 1.92710669e+03, 1.97612683e+03,
          8.31832886e+02, 1.76070496e+03, 2.64097974e+03, 1.57587390e+03,
          0., 1.98252365e+02, 3.30608597e+01, 2.86918872e+03,
          6.74650488e+03, 0., 0., 2.00967896e+03, 1.78347510e+03,
          2.88860669e+03, 9.53045715e+02, 3.45707910e+03, 7.32560693e+03,
          1.93034863e+03, 1.98715881e+02, 1.43962427e+03, 1.07062512e+03 ]
      - [ 2.14810205e+03, 3.81641895e+03, 3.40770459e+03, 7.97103809e+03,
          0., 0., 0., 0., 0., 5.48731262e+02, 1.48696191e+03,
          1.63402722e+03, 0., 2.82924536e+03, 1.41218613e+02, 0.,
          1.92227246e+03, 0., 0., 2.24414780e+02, 5.51352393e+03,
          1.21668457e+03, 1.84624561e+03, 0., 9.44710022e+02,
          8.32009583e+02, 2.92827606e+02, 3.41315094e+02, 5.73496729e+03,
          8.76620020e+03, 2.17453613e+03, 1.97587671e+03, 6., 0., 0.,
          4.02849292e+03, 1.61014368e+03, 5.87584473e+03, 5.47471533e+03,
          8.26299072e+02, 0., 0., 1.17176001e+03, 2.29491968e+03,
          1.53663159e+03, 9.61215881e+02, 6.79008911e+02, 0.,
          2.17517807e+02, 2.03963965e+03, 3.07524121e+03, 1.67720386e+03,
          1.79870117e+03, 0., 0., 2.00252783e+03, 1.94694556e+03,
          2.18513965e+03, 9.27513086e+03, 3.69631079e+03, 2.07464063e+03,
          0., 0., 1.74431860e+03 ]
      - [ 1.12108960e+03, 3.90028027e+03, 5.97889551e+03, 2.98628784e+03,
          9.12212891e+02, 0., 0., 0., 0., 1.20633850e+03, 2.03881079e+03,
          3.99584839e+03, 0., 0., 1.18152451e+02, 0., 1.29682214e+03, 0.,
          0., 1.68011902e+02, 3.99722852e+03, 1.79713489e+03,
          1.25443762e+03, 6.60928162e+02, 1.61370886e+03, 2.91952911e+02,
          0., 1.39283876e+01, 5.85040430e+03, 2.45187598e+03,
          4.33662549e+03, 2.20897754e+03, 0., 8.10061722e+01, 0., 0.,
          8.60936621e+03, 3.56673413e+03, 1.64424402e+03, 2.09906030e+03,
          0., 1.55563488e+01, 1.11400177e+02, 4.46814209e+03,
          2.74935229e+03, 1.56114307e+03, 5.53352356e+02, 8.31562378e+02,
          1.45301685e+03, 8.95399658e+02, 4.81154492e+03, 2.60858838e+03,
          1.61729480e+03, 0., 0., 1.48623804e+03, 1.64478284e+03,
          3.41212646e+03, 5.64561621e+03, 5.67454834e+03, 44., 0., 0.,
          0. ]
      - [ 1.85900171e+03, 2.82777173e+03, 2.39795923e+03, 5.89837646e+02,
          0., 3.87734436e+02, 0., 0., 1.76091711e+03, 2.14017969e+03,
          7.43870605e+02, 7.70923340e+02, 0., 0., 1.44589081e+02,
          3.83542542e+02, 0., 0., 0., 1.31749072e+03, 1.18115076e+03,
          1.04792065e+03, 5.21257324e+02, 1.61909900e+03, 6.58072266e+02,
          2.46981773e+01, 0., 1.11273035e+03, 1.18656372e+03,
          1.62362952e+03, 2.09010107e+03, 3.43529468e+03, 0., 0.,
          1.85067551e+02, 7.33504089e+02, 9.84324707e+02, 1.10133838e+03,
          2.81467773e+03, 3.57133447e+03, 5.75673561e+01, 0.,
          2.83196030e+01, 2.02987686e+02, 6.43187378e+02, 5.85931763e+02,
          1.20893884e+03, 3.43766772e+03, 2.65854614e+03, 1.17823621e+03,
          1.31668066e+03, 1.69376831e+03, 0., 6.40780792e+01,
          3.42489197e+02, 1.56876160e+03, 2.23403076e+03, 2.45681055e+03,
          2.00438025e+03, 2.34242896e+03, 0., 0., 1.69705620e+01,
          2.76972931e+02 ]
      - [ 6.01043408e+03, 2.30972412e+03, 1.16056396e+03, 0., 0.,
          9.96393509e+01, 0., 3.54587097e+02, 2.57210425e+03,
          2.78255280e+02, 0., 0., 0., 0., 0., 5.24291626e+02,
          2.54770581e+03, 1.56780106e+02, 0., 0., 3.36005951e+02,
          9.22158325e+02, 1.28114929e+03, 1.11029919e+03, 2.43329565e+03,
          0., 0., 1.66373077e+02, 2.38350171e+03, 1.21038062e+03,
          1.19479065e+03, 3.84650293e+03, 5.51552307e+02, 0.,
          4.86686768e+02, 6.37991028e+02, 1.03740210e+03, 7.65964844e+02,
          3.44497876e+03, 1.56404211e+03, 3.37684448e+03, 1.74403809e+03,
          0., 0., 7.28011017e+01, 0., 3.03848633e+02, 3.12874365e+03,
          3.44655273e+03, 8.40072632e+02, 1.81752429e+03, 9.57267944e+02,
          0., 0., 7.13595734e+01, 1.48171289e+03, 3.62137231e+03,
          2.73575830e+03, 1.66116382e+03, 3.01779932e+03, 0.,
          9.95690689e+01, 0., 0. ]
      - [ 4.54213379e+03, 2.00673840e+03, 1.47011853e+03, 5.49000916e+02,
          0., 0., 0., 1.80460425e+03, 2.18414648e+03, 5.66683350e+02,
          2.51602859e+02, 0., 0., 0., 9.93176727e+01, 7.09365921e+01, 0.,
          0., 0., 3.59947205e+02, 0., 0., 4.96326508e+02, 3.83114331e+03,
          3.99061401e+02, 2.27951752e+02, 0., 0., 6.80624695e+02,
          1.07654810e+03, 2.61654517e+03, 5.36258838e+03, 2.23118408e+03,
          0., 0., 0., 1.66546814e+03, 1.48227502e+03, 1.76473621e+03,
          3.79363745e+03, 1.71177942e+03, 2.12132034e+01, 0.,
          5.03080505e+02, 5.17585205e+02, 3.00707520e+02, 1.09183374e+03,
          1.66614685e+03, 4.56132471e+03, 9.23734070e+02, 7.64240723e+02,
          7.03773926e+02, 1.39713989e+02, 0., 2.12132034e+01,
          1.51362891e+03, 5.21800977e+03, 2.58792676e+03, 1.27535986e+03,
          6.78759155e+02, 1.49530103e+03, 0., 0., 0. ]
      - [ 3.39603198e+03, 2.22753735e+03, 3.84990356e+03, 3.12731128e+03,
          3.18230933e+03, 4.11526428e+02, 0., 0., 1.41763916e+03,
          3.57357361e+02, 2.60482788e+03, 4.22912891e+03, 0., 0., 0., 0.,
          5.43166016e+02, 1.41421354e+00, 0., 0., 3.46544775e+03,
          1.70508997e+03, 4.48291357e+03, 0., 0., 0., 0., 0.,
          5.23617627e+03, 3.91239331e+03, 3.14279297e+03, 4.75413867e+03,
          0., 0., 0., 2.26737732e+02, 9.90043652e+03, 1.93889978e+03,
          2.98998682e+03, 1.76518054e+03, 0., 0., 0., 0., 7.88469629e+03,
          8.78084595e+02, 9.15553406e+02, 5.08246643e+02, 8.68371216e+02,
          1.27789661e+03, 3.74857495e+03, 1.42255249e+03, 3.57651465e+03,
          0., 1.13137083e+01, 1.01202766e+02, 3.68270874e+03,
          1.57884937e+03, 5.90443555e+03, 6.48144873e+03, 88., 0.,
          3.78581123e+01, 8.27133240e+02 ]
      - [ 1.12925842e+03, 5.91056982e+03, 1.01896289e+04, 0., 0., 0., 0.,
          0., 2.91547585e+01, 1.93455847e+03, 2.12720215e+03, 0., 0., 0.,
          0., 0., 1.99130139e+03, 6.14087219e+01, 0., 0., 2.41460547e+03,
          1.06037830e+03, 1.10695227e+03, 1.73224585e+03, 0.,
          2.31004346e+03, 0., 0., 3.65740283e+03, 9.07136133e+03,
          2.17938965e+03, 1.98877026e+03, 0., 0., 2.69981476e+02,
          3.69399902e+03, 1.99038745e+03, 9.90434753e+02, 9.84541504e+03,
          1.96776709e+03, 0., 0., 2.21101147e+03, 2.24880151e+03,
          3.57314972e+02, 1.64734949e+03, 1.47506982e+03, 1.85861536e+03,
          2.26552515e+03, 1.61502588e+03, 1.90819629e+03, 4.19859619e+03,
          9.92471619e+01, 0., 0., 1.99953894e+03, 4.06547217e+03,
          2.46318335e+03, 6.17841309e+03, 3.69696997e+03, 2.01505505e+03,
          0., 0., 0. ]
      - [ 1.63580774e+03, 4.59770557e+03, 3.63627808e+03, 5.53115576e+03,
          0., 0., 0., 0., 8.28733978e+01, 1.28124060e+03, 2.66728906e+03,
          3.86506006e+03, 0., 0., 0., 1.90262985e+01, 4.56990625e+03,
          6.13265991e+01, 0., 0., 0., 0., 2.90453906e+03, 2.26916309e+03,
          2.07203491e+03, 1.33638416e+03, 1.00169617e+03, 1.57925952e+03,
          7.12390503e+02, 1.58632654e+03, 2.45560498e+03, 1.47983618e+03,
          0., 1.69852875e+02, 0., 0., 8.62471582e+03, 1.99851794e+03,
          1.37386829e+03, 1.93402429e+03, 1.43603027e+03, 2.23606796e+01,
          2.45246811e+02, 3.35553540e+03, 1.56151538e+03, 1.47813379e+03,
          2.57127075e+03, 0., 2.51982471e+03, 4.00633154e+03,
          1.38621680e+03, 0., 10., 0., 1.15247559e+02, 2.61100879e+03,
          3.21852295e+03, 2.87952173e+03, 1.52605042e+03, 1.60460266e+03,
          1.51235059e+03, 1.01460883e+03, 1.50921219e+02, 1.92926807e+03 ]
      - [ 6.69096143e+03, 3.69972583e+03, 4.49644592e+02, 0., 0., 0., 0.,
          0., 1.42698047e+03, 0., 2.57410187e+02, 0., 0., 0., 0.,
          2.99666473e+02, 1.95880908e+03, 1.24201447e+02, 1.89842041e+02,
          0., 0., 0., 0., 2.10878320e+03, 1.92975000e+03, 9.62081070e+01,
          6.93108902e+01, 0., 7.55232117e+02, 1.35131494e+03,
          2.76282910e+03, 4.82888135e+03, 5.16156982e+02, 0.,
          9.94886932e+01, 1.40473389e+03, 44., 2.38498877e+03,
          2.09063574e+03, 5.59918750e+03, 2.07080322e+03, 8.84576416e+02,
          6.81765381e+02, 0., 0., 5.55202637e+02, 0., 1.87402478e+03,
          2.04983789e+03, 1.40820605e+03, 6.02273132e+02, 5.14839783e+02,
          2.50343765e+02, 1.14490181e+02, 2.95330322e+02, 2.18660791e+03,
          5.10152881e+03, 4.28376953e+03, 1.30074438e+03, 8.45286926e+02,
          1.63891260e+03, 0., 0., 2.20889502e+03 ]
      - [ 3.19898486e+03, 5.26001855e+03, 5.02923486e+03, 1.97429565e+03,
          0., 0., 0., 0., 0., 1.39908447e+03, 7.41048828e+02,
          1.59624557e+02, 0., 9.01004456e+02, 1.13351868e+03, 0.,
          1.78613135e+03, 8.83595215e+02, 0., 8.48619751e+02,
          2.86681885e+03, 1.61443726e+03, 3.72325134e+02, 1.90471069e+03,
          2.83529736e+03, 1.70983777e+03, 0., 3.86080292e+02,
          5.07311279e+03, 4.37392432e+03, 2.05685376e+03, 5.06626563e+03,
          2.94278774e+01, 0., 0., 0., 2.90057153e+03, 4.34852295e+03,
          4.39403125e+03, 2.46990137e+03, 8.03044006e+02, 3.50627563e+03,
          3.52276367e+03, 0., 0., 5.31687866e+02, 1.06394287e+03,
          2.39894727e+03, 3.47508862e+03, 2.67993872e+03, 2.10205884e+03,
          2.93469067e+03, 7.72010345e+01, 0., 1.97989902e+01,
          2.79753320e+03, 3.99069434e+03, 3.44492847e+03, 3.07703882e+03,
          4.66513281e+03, 0., 0., 2.82842708e+00, 2.03199417e+02 ]
      - [ 4.44072075e+01, 6.53478076e+03, 3.90166455e+03, 2.00968127e+03,
          6.03518005e+02, 0., 0., 0., 4.73663147e+02, 1.14064246e+03, 0.,
          1.52749207e+03, 0., 1.27868579e+03, 0., 0., 5.81048877e+03,
          4.84972748e+02, 1.01967340e+03, 0., 18., 0., 0., 0.,
          3.79155762e+03, 4.43761865e+03, 1.50933301e+03, 7.62523132e+02,
          2.29108203e+03, 5.10575989e+02, 9.77824280e+02, 2.18797900e+03,
          0., 0., 0., 3.54564514e+02, 4.52638623e+03, 4.34238623e+03,
          5.28546045e+03, 0., 1.32740341e+02, 0., 0., 2.55267407e+03,
          3.82829175e+03, 1.14905908e+03, 0., 0., 1.52058301e+03,
          1.60811829e+03, 5.08931494e+03, 1.19758997e+03, 0., 0., 0.,
          1.63773401e+03, 2.65738110e+03, 2.48805469e+03, 4.96279932e+03,
          2.28557300e+03, 1.55401343e+03, 4.85479156e+02, 1.44648584e+03,
          0. ]
      - [ 6.32890479e+03, 2.98644702e+03, 6.62962891e+02, 0., 0., 0., 0.,
          1.27689929e+03, 0., 0., 0., 0., 0., 0., 0., 0., 1.90177930e+03,
          2.82842708e+00, 8.84081421e+01, 0., 0., 0., 0., 4.33315125e+02,
